digraph Tree {
node [shape=box, fontname="helvetica"] ;
edge [fontname="helvetica"] ;
0 [label="x[5] <= 1.5\ngini = 0.347\nsamples = 21000\nvalue = [16304, 4696]"] ;
1 [label="x[6] <= 1.5\ngini = 0.28\nsamples = 18782\nvalue = [15620, 3162]"] ;
0 -> 1 [labeldistance=2.5, labelangle=45, headlabel="True"] ;
2 [label="x[18] <= 1500.5\ngini = 0.246\nsamples = 17148\nvalue = [14684, 2464]"] ;
1 -> 2 ;
3 [label="x[8] <= 1.0\ngini = 0.323\nsamples = 6337\nvalue = [5053, 1284]"] ;
2 -> 3 ;
4 [label="x[11] <= 529.0\ngini = 0.313\nsamples = 6044\nvalue = [4871, 1173]"] ;
3 -> 4 ;
5 [label="x[19] <= 0.5\ngini = 0.371\nsamples = 2004\nvalue = [1511, 493]"] ;
4 -> 5 ;
6 [label="x[4] <= 53.5\ngini = 0.417\nsamples = 1161\nvalue = [817, 344]"] ;
5 -> 6 ;
7 [label="x[16] <= 73.0\ngini = 0.407\nsamples = 1099\nvalue = [787, 312]"] ;
6 -> 7 ;
8 [label="x[0] <= 315000.0\ngini = 0.429\nsamples = 827\nvalue = [569, 258]"] ;
7 -> 8 ;
9 [label="x[0] <= 25000.0\ngini = 0.405\nsamples = 670\nvalue = [481, 189]"] ;
8 -> 9 ;
10 [label="x[1] <= 1.5\ngini = 0.5\nsamples = 37\nvalue = [19, 18]"] ;
9 -> 10 ;
11 [label="x[14] <= 6.0\ngini = 0.401\nsamples = 18\nvalue = [13, 5]"] ;
10 -> 11 ;
12 [label="x[3] <= 2.5\ngini = 0.142\nsamples = 13\nvalue = [12, 1]"] ;
11 -> 12 ;
13 [label="gini = 0.0\nsamples = 12\nvalue = [12, 0]"] ;
12 -> 13 ;
14 [label="gini = 0.0\nsamples = 1\nvalue = [0, 1]"] ;
12 -> 14 ;
15 [label="x[11] <= -4.0\ngini = 0.32\nsamples = 5\nvalue = [1, 4]"] ;
11 -> 15 ;
16 [label="gini = 0.0\nsamples = 1\nvalue = [1, 0]"] ;
15 -> 16 ;
17 [label="gini = 0.0\nsamples = 4\nvalue = [0, 4]"] ;
15 -> 17 ;
18 [label="x[20] <= 195.0\ngini = 0.432\nsamples = 19\nvalue = [6, 13]"] ;
10 -> 18 ;
19 [label="x[16] <= -12.5\ngini = 0.36\nsamples = 17\nvalue = [4, 13]"] ;
18 -> 19 ;
20 [label="x[14] <= -525.0\ngini = 0.444\nsamples = 3\nvalue = [2, 1]"] ;
19 -> 20 ;
21 [label="gini = 0.0\nsamples = 1\nvalue = [0, 1]"] ;
20 -> 21 ;
22 [label="gini = 0.0\nsamples = 2\nvalue = [2, 0]"] ;
20 -> 22 ;
23 [label="x[0] <= 15000.0\ngini = 0.245\nsamples = 14\nvalue = [2, 12]"] ;
19 -> 23 ;
24 [label="x[6] <= -1.5\ngini = 0.5\nsamples = 4\nvalue = [2, 2]"] ;
23 -> 24 ;
25 [label="gini = 0.0\nsamples = 2\nvalue = [2, 0]"] ;
24 -> 25 ;
26 [label="gini = 0.0\nsamples = 2\nvalue = [0, 2]"] ;
24 -> 26 ;
27 [label="gini = 0.0\nsamples = 10\nvalue = [0, 10]"] ;
23 -> 27 ;
28 [label="gini = 0.0\nsamples = 2\nvalue = [2, 0]"] ;
18 -> 28 ;
29 [label="x[4] <= 35.5\ngini = 0.394\nsamples = 633\nvalue = [462, 171]"] ;
9 -> 29 ;
30 [label="x[1] <= 1.5\ngini = 0.35\nsamples = 358\nvalue = [277, 81]"] ;
29 -> 30 ;
31 [label="x[17] <= 1353.5\ngini = 0.441\nsamples = 116\nvalue = [78, 38]"] ;
30 -> 31 ;
32 [label="x[4] <= 34.5\ngini = 0.454\nsamples = 109\nvalue = [71, 38]"] ;
31 -> 32 ;
33 [label="x[12] <= 585.0\ngini = 0.468\nsamples = 99\nvalue = [62, 37]"] ;
32 -> 33 ;
34 [label="x[0] <= 205000.0\ngini = 0.457\nsamples = 96\nvalue = [62, 34]"] ;
33 -> 34 ;
35 [label="x[12] <= -395.5\ngini = 0.425\nsamples = 75\nvalue = [52, 23]"] ;
34 -> 35 ;
36 [label="x[14] <= -2743.5\ngini = 0.49\nsamples = 7\nvalue = [3, 4]"] ;
35 -> 36 ;
37 [label="gini = 0.0\nsamples = 2\nvalue = [2, 0]"] ;
36 -> 37 ;
38 [label="x[3] <= 1.5\ngini = 0.32\nsamples = 5\nvalue = [1, 4]"] ;
36 -> 38 ;
39 [label="gini = 0.0\nsamples = 1\nvalue = [1, 0]"] ;
38 -> 39 ;
40 [label="gini = 0.0\nsamples = 4\nvalue = [0, 4]"] ;
38 -> 40 ;
41 [label="x[2] <= 2.5\ngini = 0.403\nsamples = 68\nvalue = [49, 19]"] ;
35 -> 41 ;
42 [label="x[0] <= 125000.0\ngini = 0.429\nsamples = 61\nvalue = [42, 19]"] ;
41 -> 42 ;
43 [label="x[5] <= -1.5\ngini = 0.488\nsamples = 26\nvalue = [15, 11]"] ;
42 -> 43 ;
44 [label="gini = 0.0\nsamples = 6\nvalue = [6, 0]"] ;
43 -> 44 ;
45 [label="x[4] <= 28.5\ngini = 0.495\nsamples = 20\nvalue = [9, 11]"] ;
43 -> 45 ;
46 [label="x[13] <= 551.5\ngini = 0.473\nsamples = 13\nvalue = [8, 5]"] ;
45 -> 46 ;
47 [label="x[0] <= 95000.0\ngini = 0.397\nsamples = 11\nvalue = [8, 3]"] ;
46 -> 47 ;
48 [label="x[18] <= 103.5\ngini = 0.32\nsamples = 10\nvalue = [8, 2]"] ;
47 -> 48 ;
49 [label="x[4] <= 26.5\ngini = 0.408\nsamples = 7\nvalue = [5, 2]"] ;
48 -> 49 ;
50 [label="x[0] <= 65000.0\ngini = 0.48\nsamples = 5\nvalue = [3, 2]"] ;
49 -> 50 ;
51 [label="x[4] <= 24.5\ngini = 0.375\nsamples = 4\nvalue = [3, 1]"] ;
50 -> 51 ;
52 [label="x[11] <= -500.0\ngini = 0.5\nsamples = 2\nvalue = [1, 1]"] ;
51 -> 52 ;
53 [label="gini = 0.0\nsamples = 1\nvalue = [1, 0]"] ;
52 -> 53 ;
54 [label="gini = 0.0\nsamples = 1\nvalue = [0, 1]"] ;
52 -> 54 ;
55 [label="gini = 0.0\nsamples = 2\nvalue = [2, 0]"] ;
51 -> 55 ;
56 [label="gini = 0.0\nsamples = 1\nvalue = [0, 1]"] ;
50 -> 56 ;
57 [label="gini = 0.0\nsamples = 2\nvalue = [2, 0]"] ;
49 -> 57 ;
58 [label="gini = 0.0\nsamples = 3\nvalue = [3, 0]"] ;
48 -> 58 ;
59 [label="gini = 0.0\nsamples = 1\nvalue = [0, 1]"] ;
47 -> 59 ;
60 [label="gini = 0.0\nsamples = 2\nvalue = [0, 2]"] ;
46 -> 60 ;
61 [label="x[4] <= 29.5\ngini = 0.245\nsamples = 7\nvalue = [1, 6]"] ;
45 -> 61 ;
62 [label="x[0] <= 55000.0\ngini = 0.444\nsamples = 3\nvalue = [1, 2]"] ;
61 -> 62 ;
63 [label="gini = 0.0\nsamples = 1\nvalue = [1, 0]"] ;
62 -> 63 ;
64 [label="gini = 0.0\nsamples = 2\nvalue = [0, 2]"] ;
62 -> 64 ;
65 [label="gini = 0.0\nsamples = 4\nvalue = [0, 4]"] ;
61 -> 65 ;
66 [label="x[5] <= -1.5\ngini = 0.353\nsamples = 35\nvalue = [27, 8]"] ;
42 -> 66 ;
67 [label="x[22] <= 298.5\ngini = 0.49\nsamples = 14\nvalue = [8, 6]"] ;
66 -> 67 ;
68 [label="x[4] <= 29.5\ngini = 0.5\nsamples = 12\nvalue = [6, 6]"] ;
67 -> 68 ;
69 [label="x[4] <= 28.5\ngini = 0.469\nsamples = 8\nvalue = [3, 5]"] ;
68 -> 69 ;
70 [label="x[3] <= 1.5\ngini = 0.5\nsamples = 6\nvalue = [3, 3]"] ;
69 -> 70 ;
71 [label="gini = 0.0\nsamples = 1\nvalue = [0, 1]"] ;
70 -> 71 ;
72 [label="x[0] <= 165000.0\ngini = 0.48\nsamples = 5\nvalue = [3, 2]"] ;
70 -> 72 ;
73 [label="gini = 0.0\nsamples = 2\nvalue = [2, 0]"] ;
72 -> 73 ;
74 [label="x[4] <= 27.0\ngini = 0.444\nsamples = 3\nvalue = [1, 2]"] ;
72 -> 74 ;
75 [label="gini = 0.0\nsamples = 1\nvalue = [1, 0]"] ;
74 -> 75 ;
76 [label="gini = 0.0\nsamples = 2\nvalue = [0, 2]"] ;
74 -> 76 ;
77 [label="gini = 0.0\nsamples = 2\nvalue = [0, 2]"] ;
69 -> 77 ;
78 [label="x[14] <= -9.0\ngini = 0.375\nsamples = 4\nvalue = [3, 1]"] ;
68 -> 78 ;
79 [label="gini = 0.0\nsamples = 1\nvalue = [0, 1]"] ;
78 -> 79 ;
80 [label="gini = 0.0\nsamples = 3\nvalue = [3, 0]"] ;
78 -> 80 ;
81 [label="gini = 0.0\nsamples = 2\nvalue = [2, 0]"] ;
67 -> 81 ;
82 [label="x[4] <= 29.5\ngini = 0.172\nsamples = 21\nvalue = [19, 2]"] ;
66 -> 82 ;
83 [label="x[4] <= 27.5\ngini = 0.278\nsamples = 12\nvalue = [10, 2]"] ;
82 -> 83 ;
84 [label="gini = 0.0\nsamples = 4\nvalue = [4, 0]"] ;
83 -> 84 ;
85 [label="x[4] <= 28.5\ngini = 0.375\nsamples = 8\nvalue = [6, 2]"] ;
83 -> 85 ;
86 [label="gini = 0.0\nsamples = 1\nvalue = [0, 1]"] ;
85 -> 86 ;
87 [label="x[0] <= 150000.0\ngini = 0.245\nsamples = 7\nvalue = [6, 1]"] ;
85 -> 87 ;
88 [label="gini = 0.0\nsamples = 3\nvalue = [3, 0]"] ;
87 -> 88 ;
89 [label="x[0] <= 165000.0\ngini = 0.375\nsamples = 4\nvalue = [3, 1]"] ;
87 -> 89 ;
90 [label="gini = 0.0\nsamples = 1\nvalue = [0, 1]"] ;
89 -> 90 ;
91 [label="gini = 0.0\nsamples = 3\nvalue = [3, 0]"] ;
89 -> 91 ;
92 [label="gini = 0.0\nsamples = 9\nvalue = [9, 0]"] ;
82 -> 92 ;
93 [label="gini = 0.0\nsamples = 7\nvalue = [7, 0]"] ;
41 -> 93 ;
94 [label="x[4] <= 28.5\ngini = 0.499\nsamples = 21\nvalue = [10, 11]"] ;
34 -> 94 ;
95 [label="gini = 0.0\nsamples = 6\nvalue = [6, 0]"] ;
94 -> 95 ;
96 [label="x[4] <= 31.0\ngini = 0.391\nsamples = 15\nvalue = [4, 11]"] ;
94 -> 96 ;
97 [label="gini = 0.0\nsamples = 6\nvalue = [0, 6]"] ;
96 -> 97 ;
98 [label="x[0] <= 305000.0\ngini = 0.494\nsamples = 9\nvalue = [4, 5]"] ;
96 -> 98 ;
99 [label="x[3] <= 1.5\ngini = 0.469\nsamples = 8\nvalue = [3, 5]"] ;
98 -> 99 ;
100 [label="gini = 0.0\nsamples = 2\nvalue = [0, 2]"] ;
99 -> 100 ;
101 [label="x[2] <= 1.5\ngini = 0.5\nsamples = 6\nvalue = [3, 3]"] ;
99 -> 101 ;
102 [label="x[4] <= 33.5\ngini = 0.48\nsamples = 5\nvalue = [2, 3]"] ;
101 -> 102 ;
103 [label="gini = 0.0\nsamples = 2\nvalue = [0, 2]"] ;
102 -> 103 ;
104 [label="x[0] <= 295000.0\ngini = 0.444\nsamples = 3\nvalue = [2, 1]"] ;
102 -> 104 ;
105 [label="gini = 0.0\nsamples = 2\nvalue = [2, 0]"] ;
104 -> 105 ;
106 [label="gini = 0.0\nsamples = 1\nvalue = [0, 1]"] ;
104 -> 106 ;
107 [label="gini = 0.0\nsamples = 1\nvalue = [1, 0]"] ;
101 -> 107 ;
108 [label="gini = 0.0\nsamples = 1\nvalue = [1, 0]"] ;
98 -> 108 ;
109 [label="gini = 0.0\nsamples = 3\nvalue = [0, 3]"] ;
33 -> 109 ;
110 [label="x[0] <= 225000.0\ngini = 0.18\nsamples = 10\nvalue = [9, 1]"] ;
32 -> 110 ;
111 [label="gini = 0.0\nsamples = 5\nvalue = [5, 0]"] ;
110 -> 111 ;
112 [label="x[0] <= 250000.0\ngini = 0.32\nsamples = 5\nvalue = [4, 1]"] ;
110 -> 112 ;
113 [label="gini = 0.0\nsamples = 1\nvalue = [0, 1]"] ;
112 -> 113 ;
114 [label="gini = 0.0\nsamples = 4\nvalue = [4, 0]"] ;
112 -> 114 ;
115 [label="gini = 0.0\nsamples = 7\nvalue = [7, 0]"] ;
31 -> 115 ;
116 [label="x[0] <= 165000.0\ngini = 0.292\nsamples = 242\nvalue = [199, 43]"] ;
30 -> 116 ;
117 [label="x[16] <= -629.0\ngini = 0.199\nsamples = 125\nvalue = [111, 14]"] ;
116 -> 117 ;
118 [label="x[12] <= -294.5\ngini = 0.5\nsamples = 6\nvalue = [3, 3]"] ;
117 -> 118 ;
119 [label="gini = 0.0\nsamples = 2\nvalue = [2, 0]"] ;
118 -> 119 ;
120 [label="x[0] <= 65000.0\ngini = 0.375\nsamples = 4\nvalue = [1, 3]"] ;
118 -> 120 ;
121 [label="gini = 0.0\nsamples = 1\nvalue = [1, 0]"] ;
120 -> 121 ;
122 [label="gini = 0.0\nsamples = 3\nvalue = [0, 3]"] ;
120 -> 122 ;
123 [label="x[8] <= -1.5\ngini = 0.168\nsamples = 119\nvalue = [108, 11]"] ;
117 -> 123 ;
124 [label="x[4] <= 25.5\ngini = 0.144\nsamples = 115\nvalue = [106, 9]"] ;
123 -> 124 ;
125 [label="x[5] <= 0.0\ngini = 0.293\nsamples = 28\nvalue = [23, 5]"] ;
124 -> 125 ;
126 [label="gini = 0.0\nsamples = 16\nvalue = [16, 0]"] ;
125 -> 126 ;
127 [label="x[0] <= 135000.0\ngini = 0.486\nsamples = 12\nvalue = [7, 5]"] ;
125 -> 127 ;
128 [label="x[22] <= 498.5\ngini = 0.42\nsamples = 10\nvalue = [7, 3]"] ;
127 -> 128 ;
129 [label="x[4] <= 24.5\ngini = 0.346\nsamples = 9\nvalue = [7, 2]"] ;
128 -> 129 ;
130 [label="x[2] <= 1.5\ngini = 0.48\nsamples = 5\nvalue = [3, 2]"] ;
129 -> 130 ;
131 [label="gini = 0.0\nsamples = 2\nvalue = [2, 0]"] ;
130 -> 131 ;
132 [label="x[4] <= 23.0\ngini = 0.444\nsamples = 3\nvalue = [1, 2]"] ;
130 -> 132 ;
133 [label="gini = 0.5\nsamples = 2\nvalue = [1, 1]"] ;
132 -> 133 ;
134 [label="gini = 0.0\nsamples = 1\nvalue = [0, 1]"] ;
132 -> 134 ;
135 [label="gini = 0.0\nsamples = 4\nvalue = [4, 0]"] ;
129 -> 135 ;
136 [label="gini = 0.0\nsamples = 1\nvalue = [0, 1]"] ;
128 -> 136 ;
137 [label="gini = 0.0\nsamples = 2\nvalue = [0, 2]"] ;
127 -> 137 ;
138 [label="x[0] <= 95000.0\ngini = 0.088\nsamples = 87\nvalue = [83, 4]"] ;
124 -> 138 ;
139 [label="gini = 0.0\nsamples = 30\nvalue = [30, 0]"] ;
138 -> 139 ;
140 [label="x[0] <= 105000.0\ngini = 0.131\nsamples = 57\nvalue = [53, 4]"] ;
138 -> 140 ;
141 [label="x[11] <= -2.0\ngini = 0.298\nsamples = 11\nvalue = [9, 2]"] ;
140 -> 141 ;
142 [label="gini = 0.0\nsamples = 5\nvalue = [5, 0]"] ;
141 -> 142 ;
143 [label="x[4] <= 27.5\ngini = 0.444\nsamples = 6\nvalue = [4, 2]"] ;
141 -> 143 ;
144 [label="gini = 0.0\nsamples = 2\nvalue = [2, 0]"] ;
143 -> 144 ;
145 [label="x[5] <= -1.5\ngini = 0.5\nsamples = 4\nvalue = [2, 2]"] ;
143 -> 145 ;
146 [label="gini = 0.0\nsamples = 1\nvalue = [0, 1]"] ;
145 -> 146 ;
147 [label="x[4] <= 28.5\ngini = 0.444\nsamples = 3\nvalue = [2, 1]"] ;
145 -> 147 ;
148 [label="gini = 0.0\nsamples = 1\nvalue = [0, 1]"] ;
147 -> 148 ;
149 [label="gini = 0.0\nsamples = 2\nvalue = [2, 0]"] ;
147 -> 149 ;
150 [label="x[4] <= 32.5\ngini = 0.083\nsamples = 46\nvalue = [44, 2]"] ;
140 -> 150 ;
151 [label="gini = 0.0\nsamples = 30\nvalue = [30, 0]"] ;
150 -> 151 ;
152 [label="x[3] <= 1.5\ngini = 0.219\nsamples = 16\nvalue = [14, 2]"] ;
150 -> 152 ;
153 [label="gini = 0.0\nsamples = 8\nvalue = [8, 0]"] ;
152 -> 153 ;
154 [label="x[17] <= 26.5\ngini = 0.375\nsamples = 8\nvalue = [6, 2]"] ;
152 -> 154 ;
155 [label="x[22] <= 119.0\ngini = 0.48\nsamples = 5\nvalue = [3, 2]"] ;
154 -> 155 ;
156 [label="x[2] <= 1.5\ngini = 0.444\nsamples = 3\nvalue = [1, 2]"] ;
155 -> 156 ;
157 [label="gini = 0.0\nsamples = 2\nvalue = [0, 2]"] ;
156 -> 157 ;
158 [label="gini = 0.0\nsamples = 1\nvalue = [1, 0]"] ;
156 -> 158 ;
159 [label="gini = 0.0\nsamples = 2\nvalue = [2, 0]"] ;
155 -> 159 ;
160 [label="gini = 0.0\nsamples = 3\nvalue = [3, 0]"] ;
154 -> 160 ;
161 [label="x[2] <= 1.5\ngini = 0.5\nsamples = 4\nvalue = [2, 2]"] ;
123 -> 161 ;
162 [label="x[0] <= 110000.0\ngini = 0.444\nsamples = 3\nvalue = [2, 1]"] ;
161 -> 162 ;
163 [label="gini = 0.0\nsamples = 2\nvalue = [2, 0]"] ;
162 -> 163 ;
164 [label="gini = 0.0\nsamples = 1\nvalue = [0, 1]"] ;
162 -> 164 ;
165 [label="gini = 0.0\nsamples = 1\nvalue = [0, 1]"] ;
161 -> 165 ;
166 [label="x[13] <= 582.5\ngini = 0.373\nsamples = 117\nvalue = [88, 29]"] ;
116 -> 166 ;
167 [label="x[12] <= -1460.0\ngini = 0.393\nsamples = 108\nvalue = [79, 29]"] ;
166 -> 167 ;
168 [label="gini = 0.0\nsamples = 1\nvalue = [0, 1]"] ;
167 -> 168 ;
169 [label="x[18] <= 525.0\ngini = 0.386\nsamples = 107\nvalue = [79, 28]"] ;
167 -> 169 ;
170 [label="x[22] <= 802.5\ngini = 0.38\nsamples = 106\nvalue = [79, 27]"] ;
169 -> 170 ;
171 [label="x[0] <= 305000.0\ngini = 0.394\nsamples = 100\nvalue = [73, 27]"] ;
170 -> 171 ;
172 [label="x[22] <= 616.0\ngini = 0.387\nsamples = 99\nvalue = [73, 26]"] ;
171 -> 172 ;
173 [label="x[4] <= 30.5\ngini = 0.38\nsamples = 98\nvalue = [73, 25]"] ;
172 -> 173 ;
174 [label="x[3] <= 1.5\ngini = 0.449\nsamples = 47\nvalue = [31, 16]"] ;
173 -> 174 ;
175 [label="x[0] <= 185000.0\ngini = 0.18\nsamples = 10\nvalue = [9, 1]"] ;
174 -> 175 ;
176 [label="x[16] <= -83.5\ngini = 0.375\nsamples = 4\nvalue = [3, 1]"] ;
175 -> 176 ;
177 [label="gini = 0.0\nsamples = 2\nvalue = [2, 0]"] ;
176 -> 177 ;
178 [label="x[4] <= 29.0\ngini = 0.5\nsamples = 2\nvalue = [1, 1]"] ;
176 -> 178 ;
179 [label="gini = 0.0\nsamples = 1\nvalue = [1, 0]"] ;
178 -> 179 ;
180 [label="gini = 0.0\nsamples = 1\nvalue = [0, 1]"] ;
178 -> 180 ;
181 [label="gini = 0.0\nsamples = 6\nvalue = [6, 0]"] ;
175 -> 181 ;
182 [label="x[4] <= 26.5\ngini = 0.482\nsamples = 37\nvalue = [22, 15]"] ;
174 -> 182 ;
183 [label="x[0] <= 225000.0\ngini = 0.278\nsamples = 6\nvalue = [5, 1]"] ;
182 -> 183 ;
184 [label="gini = 0.0\nsamples = 4\nvalue = [4, 0]"] ;
183 -> 184 ;
185 [label="x[5] <= -0.5\ngini = 0.5\nsamples = 2\nvalue = [1, 1]"] ;
183 -> 185 ;
186 [label="gini = 0.0\nsamples = 1\nvalue = [1, 0]"] ;
185 -> 186 ;
187 [label="gini = 0.0\nsamples = 1\nvalue = [0, 1]"] ;
185 -> 187 ;
188 [label="x[14] <= -100.0\ngini = 0.495\nsamples = 31\nvalue = [17, 14]"] ;
182 -> 188 ;
189 [label="gini = 0.0\nsamples = 1\nvalue = [0, 1]"] ;
188 -> 189 ;
190 [label="x[0] <= 190000.0\ngini = 0.491\nsamples = 30\nvalue = [17, 13]"] ;
188 -> 190 ;
191 [label="x[5] <= -0.5\ngini = 0.278\nsamples = 6\nvalue = [5, 1]"] ;
190 -> 191 ;
192 [label="x[2] <= 2.0\ngini = 0.5\nsamples = 2\nvalue = [1, 1]"] ;
191 -> 192 ;
193 [label="gini = 0.0\nsamples = 1\nvalue = [0, 1]"] ;
192 -> 193 ;
194 [label="gini = 0.0\nsamples = 1\nvalue = [1, 0]"] ;
192 -> 194 ;
195 [label="gini = 0.0\nsamples = 4\nvalue = [4, 0]"] ;
191 -> 195 ;
196 [label="x[0] <= 220000.0\ngini = 0.5\nsamples = 24\nvalue = [12, 12]"] ;
190 -> 196 ;
197 [label="x[5] <= 0.0\ngini = 0.42\nsamples = 10\nvalue = [3, 7]"] ;
196 -> 197 ;
198 [label="x[20] <= 50.5\ngini = 0.375\nsamples = 4\nvalue = [3, 1]"] ;
197 -> 198 ;
199 [label="x[2] <= 2.5\ngini = 0.444\nsamples = 3\nvalue = [2, 1]"] ;
198 -> 199 ;
200 [label="x[0] <= 205000.0\ngini = 0.5\nsamples = 2\nvalue = [1, 1]"] ;
199 -> 200 ;
201 [label="gini = 0.0\nsamples = 1\nvalue = [0, 1]"] ;
200 -> 201 ;
202 [label="gini = 0.0\nsamples = 1\nvalue = [1, 0]"] ;
200 -> 202 ;
203 [label="gini = 0.0\nsamples = 1\nvalue = [1, 0]"] ;
199 -> 203 ;
204 [label="gini = 0.0\nsamples = 1\nvalue = [1, 0]"] ;
198 -> 204 ;
205 [label="gini = 0.0\nsamples = 6\nvalue = [0, 6]"] ;
197 -> 205 ;
206 [label="x[2] <= 2.5\ngini = 0.459\nsamples = 14\nvalue = [9, 5]"] ;
196 -> 206 ;
207 [label="x[3] <= 2.5\ngini = 0.426\nsamples = 13\nvalue = [9, 4]"] ;
206 -> 207 ;
208 [label="x[0] <= 290000.0\ngini = 0.444\nsamples = 12\nvalue = [8, 4]"] ;
207 -> 208 ;
209 [label="x[4] <= 29.5\ngini = 0.49\nsamples = 7\nvalue = [4, 3]"] ;
208 -> 209 ;
210 [label="x[0] <= 235000.0\ngini = 0.375\nsamples = 4\nvalue = [1, 3]"] ;
209 -> 210 ;
211 [label="x[2] <= 1.5\ngini = 0.5\nsamples = 2\nvalue = [1, 1]"] ;
210 -> 211 ;
212 [label="gini = 0.0\nsamples = 1\nvalue = [1, 0]"] ;
211 -> 212 ;
213 [label="gini = 0.0\nsamples = 1\nvalue = [0, 1]"] ;
211 -> 213 ;
214 [label="gini = 0.0\nsamples = 2\nvalue = [0, 2]"] ;
210 -> 214 ;
215 [label="gini = 0.0\nsamples = 3\nvalue = [3, 0]"] ;
209 -> 215 ;
216 [label="x[4] <= 29.5\ngini = 0.32\nsamples = 5\nvalue = [4, 1]"] ;
208 -> 216 ;
217 [label="gini = 0.0\nsamples = 4\nvalue = [4, 0]"] ;
216 -> 217 ;
218 [label="gini = 0.0\nsamples = 1\nvalue = [0, 1]"] ;
216 -> 218 ;
219 [label="gini = 0.0\nsamples = 1\nvalue = [1, 0]"] ;
207 -> 219 ;
220 [label="gini = 0.0\nsamples = 1\nvalue = [0, 1]"] ;
206 -> 220 ;
221 [label="x[12] <= 2092.0\ngini = 0.291\nsamples = 51\nvalue = [42, 9]"] ;
173 -> 221 ;
222 [label="x[4] <= 32.5\ngini = 0.269\nsamples = 50\nvalue = [42, 8]"] ;
221 -> 222 ;
223 [label="x[0] <= 290000.0\ngini = 0.142\nsamples = 26\nvalue = [24, 2]"] ;
222 -> 223 ;
224 [label="x[0] <= 190000.0\ngini = 0.08\nsamples = 24\nvalue = [23, 1]"] ;
223 -> 224 ;
225 [label="x[2] <= 1.5\ngini = 0.375\nsamples = 4\nvalue = [3, 1]"] ;
224 -> 225 ;
226 [label="gini = 0.0\nsamples = 2\nvalue = [2, 0]"] ;
225 -> 226 ;
227 [label="x[4] <= 31.5\ngini = 0.5\nsamples = 2\nvalue = [1, 1]"] ;
225 -> 227 ;
228 [label="gini = 0.0\nsamples = 1\nvalue = [0, 1]"] ;
227 -> 228 ;
229 [label="gini = 0.0\nsamples = 1\nvalue = [1, 0]"] ;
227 -> 229 ;
230 [label="gini = 0.0\nsamples = 20\nvalue = [20, 0]"] ;
224 -> 230 ;
231 [label="x[4] <= 31.5\ngini = 0.5\nsamples = 2\nvalue = [1, 1]"] ;
223 -> 231 ;
232 [label="gini = 0.0\nsamples = 1\nvalue = [1, 0]"] ;
231 -> 232 ;
233 [label="gini = 0.0\nsamples = 1\nvalue = [0, 1]"] ;
231 -> 233 ;
234 [label="x[2] <= 2.5\ngini = 0.375\nsamples = 24\nvalue = [18, 6]"] ;
222 -> 234 ;
235 [label="x[0] <= 205000.0\ngini = 0.308\nsamples = 21\nvalue = [17, 4]"] ;
234 -> 235 ;
236 [label="x[2] <= 1.5\ngini = 0.49\nsamples = 7\nvalue = [4, 3]"] ;
235 -> 236 ;
237 [label="gini = 0.0\nsamples = 2\nvalue = [0, 2]"] ;
236 -> 237 ;
238 [label="x[0] <= 195000.0\ngini = 0.32\nsamples = 5\nvalue = [4, 1]"] ;
236 -> 238 ;
239 [label="gini = 0.0\nsamples = 4\nvalue = [4, 0]"] ;
238 -> 239 ;
240 [label="gini = 0.0\nsamples = 1\nvalue = [0, 1]"] ;
238 -> 240 ;
241 [label="x[0] <= 265000.0\ngini = 0.133\nsamples = 14\nvalue = [13, 1]"] ;
235 -> 241 ;
242 [label="gini = 0.0\nsamples = 8\nvalue = [8, 0]"] ;
241 -> 242 ;
243 [label="x[5] <= -0.5\ngini = 0.278\nsamples = 6\nvalue = [5, 1]"] ;
241 -> 243 ;
244 [label="x[0] <= 295000.0\ngini = 0.5\nsamples = 2\nvalue = [1, 1]"] ;
243 -> 244 ;
245 [label="gini = 0.0\nsamples = 1\nvalue = [0, 1]"] ;
244 -> 245 ;
246 [label="gini = 0.0\nsamples = 1\nvalue = [1, 0]"] ;
244 -> 246 ;
247 [label="gini = 0.0\nsamples = 4\nvalue = [4, 0]"] ;
243 -> 247 ;
248 [label="x[2] <= 4.0\ngini = 0.444\nsamples = 3\nvalue = [1, 2]"] ;
234 -> 248 ;
249 [label="gini = 0.0\nsamples = 2\nvalue = [0, 2]"] ;
248 -> 249 ;
250 [label="gini = 0.0\nsamples = 1\nvalue = [1, 0]"] ;
248 -> 250 ;
251 [label="gini = 0.0\nsamples = 1\nvalue = [0, 1]"] ;
221 -> 251 ;
252 [label="gini = 0.0\nsamples = 1\nvalue = [0, 1]"] ;
172 -> 252 ;
253 [label="gini = 0.0\nsamples = 1\nvalue = [0, 1]"] ;
171 -> 253 ;
254 [label="gini = 0.0\nsamples = 6\nvalue = [6, 0]"] ;
170 -> 254 ;
255 [label="gini = 0.0\nsamples = 1\nvalue = [0, 1]"] ;
169 -> 255 ;
256 [label="gini = 0.0\nsamples = 9\nvalue = [9, 0]"] ;
166 -> 256 ;
257 [label="x[22] <= 1025.5\ngini = 0.44\nsamples = 275\nvalue = [185, 90]"] ;
29 -> 257 ;
258 [label="x[0] <= 85000.0\ngini = 0.451\nsamples = 259\nvalue = [170, 89]"] ;
257 -> 258 ;
259 [label="x[4] <= 48.5\ngini = 0.307\nsamples = 37\nvalue = [30, 7]"] ;
258 -> 259 ;
260 [label="x[11] <= 394.0\ngini = 0.185\nsamples = 29\nvalue = [26, 3]"] ;
259 -> 260 ;
261 [label="x[4] <= 37.5\ngini = 0.133\nsamples = 28\nvalue = [26, 2]"] ;
260 -> 261 ;
262 [label="x[0] <= 70000.0\ngini = 0.48\nsamples = 5\nvalue = [3, 2]"] ;
261 -> 262 ;
263 [label="x[20] <= 5264.0\ngini = 0.444\nsamples = 3\nvalue = [1, 2]"] ;
262 -> 263 ;
264 [label="gini = 0.0\nsamples = 2\nvalue = [0, 2]"] ;
263 -> 264 ;
265 [label="gini = 0.0\nsamples = 1\nvalue = [1, 0]"] ;
263 -> 265 ;
266 [label="gini = 0.0\nsamples = 2\nvalue = [2, 0]"] ;
262 -> 266 ;
267 [label="gini = 0.0\nsamples = 23\nvalue = [23, 0]"] ;
261 -> 267 ;
268 [label="gini = 0.0\nsamples = 1\nvalue = [0, 1]"] ;
260 -> 268 ;
269 [label="x[4] <= 50.5\ngini = 0.5\nsamples = 8\nvalue = [4, 4]"] ;
259 -> 269 ;
270 [label="gini = 0.0\nsamples = 2\nvalue = [0, 2]"] ;
269 -> 270 ;
271 [label="x[3] <= 2.5\ngini = 0.444\nsamples = 6\nvalue = [4, 2]"] ;
269 -> 271 ;
272 [label="x[2] <= 2.0\ngini = 0.32\nsamples = 5\nvalue = [4, 1]"] ;
271 -> 272 ;
273 [label="gini = 0.0\nsamples = 2\nvalue = [2, 0]"] ;
272 -> 273 ;
274 [label="x[5] <= -0.5\ngini = 0.444\nsamples = 3\nvalue = [2, 1]"] ;
272 -> 274 ;
275 [label="gini = 0.0\nsamples = 2\nvalue = [2, 0]"] ;
274 -> 275 ;
276 [label="gini = 0.0\nsamples = 1\nvalue = [0, 1]"] ;
274 -> 276 ;
277 [label="gini = 0.0\nsamples = 1\nvalue = [0, 1]"] ;
271 -> 277 ;
278 [label="x[4] <= 46.5\ngini = 0.466\nsamples = 222\nvalue = [140, 82]"] ;
258 -> 278 ;
279 [label="x[12] <= 5399.0\ngini = 0.485\nsamples = 174\nvalue = [102, 72]"] ;
278 -> 279 ;
280 [label="x[18] <= 93.0\ngini = 0.488\nsamples = 170\nvalue = [98, 72]"] ;
279 -> 280 ;
281 [label="x[11] <= 39.0\ngini = 0.482\nsamples = 160\nvalue = [95, 65]"] ;
280 -> 281 ;
282 [label="x[4] <= 40.5\ngini = 0.492\nsamples = 147\nvalue = [83, 64]"] ;
281 -> 282 ;
283 [label="x[15] <= 3962.0\ngini = 0.469\nsamples = 88\nvalue = [55, 33]"] ;
282 -> 283 ;
284 [label="x[20] <= 77.5\ngini = 0.461\nsamples = 86\nvalue = [55, 31]"] ;
283 -> 284 ;
285 [label="x[4] <= 36.5\ngini = 0.478\nsamples = 76\nvalue = [46, 30]"] ;
284 -> 285 ;
286 [label="x[5] <= -0.5\ngini = 0.42\nsamples = 10\nvalue = [3, 7]"] ;
285 -> 286 ;
287 [label="gini = 0.0\nsamples = 3\nvalue = [0, 3]"] ;
286 -> 287 ;
288 [label="x[0] <= 235000.0\ngini = 0.49\nsamples = 7\nvalue = [3, 4]"] ;
286 -> 288 ;
289 [label="x[0] <= 220000.0\ngini = 0.48\nsamples = 5\nvalue = [3, 2]"] ;
288 -> 289 ;
290 [label="x[3] <= 1.5\ngini = 0.5\nsamples = 4\nvalue = [2, 2]"] ;
289 -> 290 ;
291 [label="x[1] <= 1.5\ngini = 0.444\nsamples = 3\nvalue = [1, 2]"] ;
290 -> 291 ;
292 [label="gini = 0.0\nsamples = 1\nvalue = [0, 1]"] ;
291 -> 292 ;
293 [label="x[0] <= 205000.0\ngini = 0.5\nsamples = 2\nvalue = [1, 1]"] ;
291 -> 293 ;
294 [label="gini = 0.0\nsamples = 1\nvalue = [1, 0]"] ;
293 -> 294 ;
295 [label="gini = 0.0\nsamples = 1\nvalue = [0, 1]"] ;
293 -> 295 ;
296 [label="gini = 0.0\nsamples = 1\nvalue = [1, 0]"] ;
290 -> 296 ;
297 [label="gini = 0.0\nsamples = 1\nvalue = [1, 0]"] ;
289 -> 297 ;
298 [label="gini = 0.0\nsamples = 2\nvalue = [0, 2]"] ;
288 -> 298 ;
299 [label="x[22] <= 75.0\ngini = 0.454\nsamples = 66\nvalue = [43, 23]"] ;
285 -> 299 ;
300 [label="x[0] <= 255000.0\ngini = 0.429\nsamples = 61\nvalue = [42, 19]"] ;
299 -> 300 ;
301 [label="x[0] <= 125000.0\ngini = 0.465\nsamples = 49\nvalue = [31, 18]"] ;
300 -> 301 ;
302 [label="gini = 0.0\nsamples = 3\nvalue = [3, 0]"] ;
301 -> 302 ;
303 [label="x[11] <= -115.5\ngini = 0.476\nsamples = 46\nvalue = [28, 18]"] ;
301 -> 303 ;
304 [label="gini = 0.0\nsamples = 1\nvalue = [0, 1]"] ;
303 -> 304 ;
305 [label="x[5] <= -0.5\ngini = 0.47\nsamples = 45\nvalue = [28, 17]"] ;
303 -> 305 ;
306 [label="x[17] <= 9.0\ngini = 0.388\nsamples = 19\nvalue = [14, 5]"] ;
305 -> 306 ;
307 [label="x[0] <= 140000.0\ngini = 0.346\nsamples = 18\nvalue = [14, 4]"] ;
306 -> 307 ;
308 [label="gini = 0.0\nsamples = 1\nvalue = [0, 1]"] ;
307 -> 308 ;
309 [label="x[4] <= 39.5\ngini = 0.291\nsamples = 17\nvalue = [14, 3]"] ;
307 -> 309 ;
310 [label="x[1] <= 1.5\ngini = 0.142\nsamples = 13\nvalue = [12, 1]"] ;
309 -> 310 ;
311 [label="x[0] <= 175000.0\ngini = 0.375\nsamples = 4\nvalue = [3, 1]"] ;
310 -> 311 ;
312 [label="gini = 0.0\nsamples = 1\nvalue = [1, 0]"] ;
311 -> 312 ;
313 [label="x[3] <= 1.5\ngini = 0.444\nsamples = 3\nvalue = [2, 1]"] ;
311 -> 313 ;
314 [label="x[0] <= 215000.0\ngini = 0.5\nsamples = 2\nvalue = [1, 1]"] ;
313 -> 314 ;
315 [label="gini = 0.0\nsamples = 1\nvalue = [0, 1]"] ;
314 -> 315 ;
316 [label="gini = 0.0\nsamples = 1\nvalue = [1, 0]"] ;
314 -> 316 ;
317 [label="gini = 0.0\nsamples = 1\nvalue = [1, 0]"] ;
313 -> 317 ;
318 [label="gini = 0.0\nsamples = 9\nvalue = [9, 0]"] ;
310 -> 318 ;
319 [label="x[2] <= 2.0\ngini = 0.5\nsamples = 4\nvalue = [2, 2]"] ;
309 -> 319 ;
320 [label="x[0] <= 235000.0\ngini = 0.444\nsamples = 3\nvalue = [2, 1]"] ;
319 -> 320 ;
321 [label="gini = 0.0\nsamples = 2\nvalue = [2, 0]"] ;
320 -> 321 ;
322 [label="gini = 0.0\nsamples = 1\nvalue = [0, 1]"] ;
320 -> 322 ;
323 [label="gini = 0.0\nsamples = 1\nvalue = [0, 1]"] ;
319 -> 323 ;
324 [label="gini = 0.0\nsamples = 1\nvalue = [0, 1]"] ;
306 -> 324 ;
325 [label="x[11] <= -8.5\ngini = 0.497\nsamples = 26\nvalue = [14, 12]"] ;
305 -> 325 ;
326 [label="gini = 0.0\nsamples = 2\nvalue = [2, 0]"] ;
325 -> 326 ;
327 [label="x[4] <= 37.5\ngini = 0.5\nsamples = 24\nvalue = [12, 12]"] ;
325 -> 327 ;
328 [label="x[1] <= 1.5\ngini = 0.375\nsamples = 4\nvalue = [3, 1]"] ;
327 -> 328 ;
329 [label="x[0] <= 215000.0\ngini = 0.5\nsamples = 2\nvalue = [1, 1]"] ;
328 -> 329 ;
330 [label="gini = 0.0\nsamples = 1\nvalue = [1, 0]"] ;
329 -> 330 ;
331 [label="gini = 0.0\nsamples = 1\nvalue = [0, 1]"] ;
329 -> 331 ;
332 [label="gini = 0.0\nsamples = 2\nvalue = [2, 0]"] ;
328 -> 332 ;
333 [label="x[4] <= 38.5\ngini = 0.495\nsamples = 20\nvalue = [9, 11]"] ;
327 -> 333 ;
334 [label="x[2] <= 1.5\ngini = 0.278\nsamples = 6\nvalue = [1, 5]"] ;
333 -> 334 ;
335 [label="x[0] <= 175000.0\ngini = 0.444\nsamples = 3\nvalue = [1, 2]"] ;
334 -> 335 ;
336 [label="gini = 0.0\nsamples = 2\nvalue = [0, 2]"] ;
335 -> 336 ;
337 [label="gini = 0.0\nsamples = 1\nvalue = [1, 0]"] ;
335 -> 337 ;
338 [label="gini = 0.0\nsamples = 3\nvalue = [0, 3]"] ;
334 -> 338 ;
339 [label="x[1] <= 1.5\ngini = 0.49\nsamples = 14\nvalue = [8, 6]"] ;
333 -> 339 ;
340 [label="x[0] <= 160000.0\ngini = 0.32\nsamples = 5\nvalue = [4, 1]"] ;
339 -> 340 ;
341 [label="gini = 0.0\nsamples = 1\nvalue = [0, 1]"] ;
340 -> 341 ;
342 [label="gini = 0.0\nsamples = 4\nvalue = [4, 0]"] ;
340 -> 342 ;
343 [label="x[0] <= 170000.0\ngini = 0.494\nsamples = 9\nvalue = [4, 5]"] ;
339 -> 343 ;
344 [label="gini = 0.0\nsamples = 2\nvalue = [2, 0]"] ;
343 -> 344 ;
345 [label="x[0] <= 190000.0\ngini = 0.408\nsamples = 7\nvalue = [2, 5]"] ;
343 -> 345 ;
346 [label="gini = 0.0\nsamples = 2\nvalue = [0, 2]"] ;
345 -> 346 ;
347 [label="x[0] <= 220000.0\ngini = 0.48\nsamples = 5\nvalue = [2, 3]"] ;
345 -> 347 ;
348 [label="x[0] <= 205000.0\ngini = 0.5\nsamples = 4\nvalue = [2, 2]"] ;
347 -> 348 ;
349 [label="x[4] <= 39.5\ngini = 0.444\nsamples = 3\nvalue = [1, 2]"] ;
348 -> 349 ;
350 [label="gini = 0.0\nsamples = 1\nvalue = [0, 1]"] ;
349 -> 350 ;
351 [label="x[3] <= 1.5\ngini = 0.5\nsamples = 2\nvalue = [1, 1]"] ;
349 -> 351 ;
352 [label="gini = 0.0\nsamples = 1\nvalue = [1, 0]"] ;
351 -> 352 ;
353 [label="gini = 0.0\nsamples = 1\nvalue = [0, 1]"] ;
351 -> 353 ;
354 [label="gini = 0.0\nsamples = 1\nvalue = [1, 0]"] ;
348 -> 354 ;
355 [label="gini = 0.0\nsamples = 1\nvalue = [0, 1]"] ;
347 -> 355 ;
356 [label="x[2] <= 2.5\ngini = 0.153\nsamples = 12\nvalue = [11, 1]"] ;
300 -> 356 ;
357 [label="gini = 0.0\nsamples = 11\nvalue = [11, 0]"] ;
356 -> 357 ;
358 [label="gini = 0.0\nsamples = 1\nvalue = [0, 1]"] ;
356 -> 358 ;
359 [label="x[3] <= 1.5\ngini = 0.32\nsamples = 5\nvalue = [1, 4]"] ;
299 -> 359 ;
360 [label="gini = 0.0\nsamples = 4\nvalue = [0, 4]"] ;
359 -> 360 ;
361 [label="gini = 0.0\nsamples = 1\nvalue = [1, 0]"] ;
359 -> 361 ;
362 [label="x[15] <= 2005.0\ngini = 0.18\nsamples = 10\nvalue = [9, 1]"] ;
284 -> 362 ;
363 [label="gini = 0.0\nsamples = 7\nvalue = [7, 0]"] ;
362 -> 363 ;
364 [label="x[15] <= 2431.5\ngini = 0.444\nsamples = 3\nvalue = [2, 1]"] ;
362 -> 364 ;
365 [label="gini = 0.0\nsamples = 1\nvalue = [0, 1]"] ;
364 -> 365 ;
366 [label="gini = 0.0\nsamples = 2\nvalue = [2, 0]"] ;
364 -> 366 ;
367 [label="gini = 0.0\nsamples = 2\nvalue = [0, 2]"] ;
283 -> 367 ;
368 [label="x[0] <= 165000.0\ngini = 0.499\nsamples = 59\nvalue = [28, 31]"] ;
282 -> 368 ;
369 [label="x[1] <= 1.5\ngini = 0.153\nsamples = 12\nvalue = [1, 11]"] ;
368 -> 369 ;
370 [label="gini = 0.0\nsamples = 7\nvalue = [0, 7]"] ;
369 -> 370 ;
371 [label="x[0] <= 135000.0\ngini = 0.32\nsamples = 5\nvalue = [1, 4]"] ;
369 -> 371 ;
372 [label="gini = 0.0\nsamples = 3\nvalue = [0, 3]"] ;
371 -> 372 ;
373 [label="x[2] <= 2.5\ngini = 0.5\nsamples = 2\nvalue = [1, 1]"] ;
371 -> 373 ;
374 [label="gini = 0.0\nsamples = 1\nvalue = [1, 0]"] ;
373 -> 374 ;
375 [label="gini = 0.0\nsamples = 1\nvalue = [0, 1]"] ;
373 -> 375 ;
376 [label="x[0] <= 195000.0\ngini = 0.489\nsamples = 47\nvalue = [27, 20]"] ;
368 -> 376 ;
377 [label="x[4] <= 44.5\ngini = 0.165\nsamples = 11\nvalue = [10, 1]"] ;
376 -> 377 ;
378 [label="gini = 0.0\nsamples = 8\nvalue = [8, 0]"] ;
377 -> 378 ;
379 [label="x[1] <= 1.5\ngini = 0.444\nsamples = 3\nvalue = [2, 1]"] ;
377 -> 379 ;
380 [label="gini = 0.5\nsamples = 2\nvalue = [1, 1]"] ;
379 -> 380 ;
381 [label="gini = 0.0\nsamples = 1\nvalue = [1, 0]"] ;
379 -> 381 ;
382 [label="x[4] <= 45.5\ngini = 0.498\nsamples = 36\nvalue = [17, 19]"] ;
376 -> 382 ;
383 [label="x[4] <= 41.5\ngini = 0.493\nsamples = 34\nvalue = [15, 19]"] ;
382 -> 383 ;
384 [label="x[11] <= -32.5\ngini = 0.375\nsamples = 4\nvalue = [3, 1]"] ;
383 -> 384 ;
385 [label="gini = 0.0\nsamples = 1\nvalue = [0, 1]"] ;
384 -> 385 ;
386 [label="gini = 0.0\nsamples = 3\nvalue = [3, 0]"] ;
384 -> 386 ;
387 [label="x[0] <= 305000.0\ngini = 0.48\nsamples = 30\nvalue = [12, 18]"] ;
383 -> 387 ;
388 [label="x[4] <= 43.5\ngini = 0.471\nsamples = 29\nvalue = [11, 18]"] ;
387 -> 388 ;
389 [label="x[0] <= 215000.0\ngini = 0.391\nsamples = 15\nvalue = [4, 11]"] ;
388 -> 389 ;
390 [label="x[1] <= 1.5\ngini = 0.49\nsamples = 7\nvalue = [3, 4]"] ;
389 -> 390 ;
391 [label="gini = 0.0\nsamples = 1\nvalue = [1, 0]"] ;
390 -> 391 ;
392 [label="x[0] <= 205000.0\ngini = 0.444\nsamples = 6\nvalue = [2, 4]"] ;
390 -> 392 ;
393 [label="gini = 0.0\nsamples = 3\nvalue = [0, 3]"] ;
392 -> 393 ;
394 [label="x[4] <= 42.5\ngini = 0.444\nsamples = 3\nvalue = [2, 1]"] ;
392 -> 394 ;
395 [label="gini = 0.0\nsamples = 1\nvalue = [1, 0]"] ;
394 -> 395 ;
396 [label="gini = 0.5\nsamples = 2\nvalue = [1, 1]"] ;
394 -> 396 ;
397 [label="x[4] <= 42.5\ngini = 0.219\nsamples = 8\nvalue = [1, 7]"] ;
389 -> 397 ;
398 [label="x[0] <= 250000.0\ngini = 0.444\nsamples = 3\nvalue = [1, 2]"] ;
397 -> 398 ;
399 [label="gini = 0.0\nsamples = 2\nvalue = [0, 2]"] ;
398 -> 399 ;
400 [label="gini = 0.0\nsamples = 1\nvalue = [1, 0]"] ;
398 -> 400 ;
401 [label="gini = 0.0\nsamples = 5\nvalue = [0, 5]"] ;
397 -> 401 ;
402 [label="x[17] <= 239.5\ngini = 0.5\nsamples = 14\nvalue = [7, 7]"] ;
388 -> 402 ;
403 [label="x[2] <= 2.5\ngini = 0.486\nsamples = 12\nvalue = [7, 5]"] ;
402 -> 403 ;
404 [label="x[0] <= 225000.0\ngini = 0.42\nsamples = 10\nvalue = [7, 3]"] ;
403 -> 404 ;
405 [label="gini = 0.0\nsamples = 4\nvalue = [4, 0]"] ;
404 -> 405 ;
406 [label="x[0] <= 280000.0\ngini = 0.5\nsamples = 6\nvalue = [3, 3]"] ;
404 -> 406 ;
407 [label="x[3] <= 1.5\ngini = 0.375\nsamples = 4\nvalue = [1, 3]"] ;
406 -> 407 ;
408 [label="x[0] <= 255000.0\ngini = 0.5\nsamples = 2\nvalue = [1, 1]"] ;
407 -> 408 ;
409 [label="gini = 0.0\nsamples = 1\nvalue = [1, 0]"] ;
408 -> 409 ;
410 [label="gini = 0.0\nsamples = 1\nvalue = [0, 1]"] ;
408 -> 410 ;
411 [label="gini = 0.0\nsamples = 2\nvalue = [0, 2]"] ;
407 -> 411 ;
412 [label="gini = 0.0\nsamples = 2\nvalue = [2, 0]"] ;
406 -> 412 ;
413 [label="gini = 0.0\nsamples = 2\nvalue = [0, 2]"] ;
403 -> 413 ;
414 [label="gini = 0.0\nsamples = 2\nvalue = [0, 2]"] ;
402 -> 414 ;
415 [label="gini = 0.0\nsamples = 1\nvalue = [1, 0]"] ;
387 -> 415 ;
416 [label="gini = 0.0\nsamples = 2\nvalue = [2, 0]"] ;
382 -> 416 ;
417 [label="x[11] <= 249.0\ngini = 0.142\nsamples = 13\nvalue = [12, 1]"] ;
281 -> 417 ;
418 [label="x[11] <= 204.0\ngini = 0.32\nsamples = 5\nvalue = [4, 1]"] ;
417 -> 418 ;
419 [label="gini = 0.0\nsamples = 4\nvalue = [4, 0]"] ;
418 -> 419 ;
420 [label="gini = 0.0\nsamples = 1\nvalue = [0, 1]"] ;
418 -> 420 ;
421 [label="gini = 0.0\nsamples = 8\nvalue = [8, 0]"] ;
417 -> 421 ;
422 [label="x[3] <= 1.5\ngini = 0.42\nsamples = 10\nvalue = [3, 7]"] ;
280 -> 422 ;
423 [label="gini = 0.0\nsamples = 7\nvalue = [0, 7]"] ;
422 -> 423 ;
424 [label="gini = 0.0\nsamples = 3\nvalue = [3, 0]"] ;
422 -> 424 ;
425 [label="gini = 0.0\nsamples = 4\nvalue = [4, 0]"] ;
279 -> 425 ;
426 [label="x[4] <= 49.5\ngini = 0.33\nsamples = 48\nvalue = [38, 10]"] ;
278 -> 426 ;
427 [label="x[12] <= 512.0\ngini = 0.137\nsamples = 27\nvalue = [25, 2]"] ;
426 -> 427 ;
428 [label="x[0] <= 165000.0\ngini = 0.074\nsamples = 26\nvalue = [25, 1]"] ;
427 -> 428 ;
429 [label="x[0] <= 155000.0\ngini = 0.245\nsamples = 7\nvalue = [6, 1]"] ;
428 -> 429 ;
430 [label="gini = 0.0\nsamples = 4\nvalue = [4, 0]"] ;
429 -> 430 ;
431 [label="x[2] <= 1.5\ngini = 0.444\nsamples = 3\nvalue = [2, 1]"] ;
429 -> 431 ;
432 [label="gini = 0.0\nsamples = 2\nvalue = [2, 0]"] ;
431 -> 432 ;
433 [label="gini = 0.0\nsamples = 1\nvalue = [0, 1]"] ;
431 -> 433 ;
434 [label="gini = 0.0\nsamples = 19\nvalue = [19, 0]"] ;
428 -> 434 ;
435 [label="gini = 0.0\nsamples = 1\nvalue = [0, 1]"] ;
427 -> 435 ;
436 [label="x[5] <= 0.0\ngini = 0.472\nsamples = 21\nvalue = [13, 8]"] ;
426 -> 436 ;
437 [label="x[14] <= -0.5\ngini = 0.48\nsamples = 10\nvalue = [4, 6]"] ;
436 -> 437 ;
438 [label="gini = 0.0\nsamples = 2\nvalue = [2, 0]"] ;
437 -> 438 ;
439 [label="x[2] <= 2.5\ngini = 0.375\nsamples = 8\nvalue = [2, 6]"] ;
437 -> 439 ;
440 [label="gini = 0.0\nsamples = 5\nvalue = [0, 5]"] ;
439 -> 440 ;
441 [label="x[0] <= 160000.0\ngini = 0.444\nsamples = 3\nvalue = [2, 1]"] ;
439 -> 441 ;
442 [label="gini = 0.0\nsamples = 1\nvalue = [0, 1]"] ;
441 -> 442 ;
443 [label="gini = 0.0\nsamples = 2\nvalue = [2, 0]"] ;
441 -> 443 ;
444 [label="x[0] <= 105000.0\ngini = 0.298\nsamples = 11\nvalue = [9, 2]"] ;
436 -> 444 ;
445 [label="gini = 0.0\nsamples = 1\nvalue = [0, 1]"] ;
444 -> 445 ;
446 [label="x[1] <= 1.5\ngini = 0.18\nsamples = 10\nvalue = [9, 1]"] ;
444 -> 446 ;
447 [label="x[0] <= 260000.0\ngini = 0.5\nsamples = 2\nvalue = [1, 1]"] ;
446 -> 447 ;
448 [label="gini = 0.0\nsamples = 1\nvalue = [0, 1]"] ;
447 -> 448 ;
449 [label="gini = 0.0\nsamples = 1\nvalue = [1, 0]"] ;
447 -> 449 ;
450 [label="gini = 0.0\nsamples = 8\nvalue = [8, 0]"] ;
446 -> 450 ;
451 [label="x[2] <= 2.5\ngini = 0.117\nsamples = 16\nvalue = [15, 1]"] ;
257 -> 451 ;
452 [label="gini = 0.0\nsamples = 14\nvalue = [14, 0]"] ;
451 -> 452 ;
453 [label="x[5] <= -0.5\ngini = 0.5\nsamples = 2\nvalue = [1, 1]"] ;
451 -> 453 ;
454 [label="gini = 0.0\nsamples = 1\nvalue = [0, 1]"] ;
453 -> 454 ;
455 [label="gini = 0.0\nsamples = 1\nvalue = [1, 0]"] ;
453 -> 455 ;
456 [label="x[8] <= -1.5\ngini = 0.493\nsamples = 157\nvalue = [88, 69]"] ;
8 -> 456 ;
457 [label="x[12] <= -1.5\ngini = 0.497\nsamples = 150\nvalue = [81, 69]"] ;
456 -> 457 ;
458 [label="x[4] <= 39.0\ngini = 0.278\nsamples = 12\nvalue = [10, 2]"] ;
457 -> 458 ;
459 [label="gini = 0.0\nsamples = 9\nvalue = [9, 0]"] ;
458 -> 459 ;
460 [label="x[16] <= -113.5\ngini = 0.444\nsamples = 3\nvalue = [1, 2]"] ;
458 -> 460 ;
461 [label="gini = 0.0\nsamples = 1\nvalue = [1, 0]"] ;
460 -> 461 ;
462 [label="gini = 0.0\nsamples = 2\nvalue = [0, 2]"] ;
460 -> 462 ;
463 [label="x[4] <= 32.5\ngini = 0.5\nsamples = 138\nvalue = [71, 67]"] ;
457 -> 463 ;
464 [label="x[0] <= 335000.0\ngini = 0.456\nsamples = 37\nvalue = [24, 13]"] ;
463 -> 464 ;
465 [label="gini = 0.0\nsamples = 2\nvalue = [0, 2]"] ;
464 -> 465 ;
466 [label="x[21] <= 1855.0\ngini = 0.431\nsamples = 35\nvalue = [24, 11]"] ;
464 -> 466 ;
467 [label="x[22] <= 1610.0\ngini = 0.415\nsamples = 34\nvalue = [24, 10]"] ;
466 -> 467 ;
468 [label="x[0] <= 440000.0\ngini = 0.397\nsamples = 33\nvalue = [24, 9]"] ;
467 -> 468 ;
469 [label="x[0] <= 395000.0\ngini = 0.428\nsamples = 29\nvalue = [20, 9]"] ;
468 -> 469 ;
470 [label="x[4] <= 30.5\ngini = 0.408\nsamples = 28\nvalue = [20, 8]"] ;
469 -> 470 ;
471 [label="x[7] <= -1.5\ngini = 0.455\nsamples = 20\nvalue = [13, 7]"] ;
470 -> 471 ;
472 [label="x[0] <= 350000.0\ngini = 0.475\nsamples = 18\nvalue = [11, 7]"] ;
471 -> 472 ;
473 [label="gini = 0.0\nsamples = 1\nvalue = [1, 0]"] ;
472 -> 473 ;
474 [label="x[4] <= 29.5\ngini = 0.484\nsamples = 17\nvalue = [10, 7]"] ;
472 -> 474 ;
475 [label="x[5] <= -0.5\ngini = 0.469\nsamples = 16\nvalue = [10, 6]"] ;
474 -> 475 ;
476 [label="x[3] <= 1.5\ngini = 0.5\nsamples = 6\nvalue = [3, 3]"] ;
475 -> 476 ;
477 [label="gini = 0.0\nsamples = 2\nvalue = [2, 0]"] ;
476 -> 477 ;
478 [label="x[1] <= 1.5\ngini = 0.375\nsamples = 4\nvalue = [1, 3]"] ;
476 -> 478 ;
479 [label="x[4] <= 28.5\ngini = 0.5\nsamples = 2\nvalue = [1, 1]"] ;
478 -> 479 ;
480 [label="gini = 0.0\nsamples = 1\nvalue = [1, 0]"] ;
479 -> 480 ;
481 [label="gini = 0.0\nsamples = 1\nvalue = [0, 1]"] ;
479 -> 481 ;
482 [label="gini = 0.0\nsamples = 2\nvalue = [0, 2]"] ;
478 -> 482 ;
483 [label="x[4] <= 28.5\ngini = 0.42\nsamples = 10\nvalue = [7, 3]"] ;
475 -> 483 ;
484 [label="x[1] <= 1.5\ngini = 0.48\nsamples = 5\nvalue = [3, 2]"] ;
483 -> 484 ;
485 [label="gini = 0.0\nsamples = 1\nvalue = [0, 1]"] ;
484 -> 485 ;
486 [label="x[2] <= 1.5\ngini = 0.375\nsamples = 4\nvalue = [3, 1]"] ;
484 -> 486 ;
487 [label="gini = 0.5\nsamples = 2\nvalue = [1, 1]"] ;
486 -> 487 ;
488 [label="gini = 0.0\nsamples = 2\nvalue = [2, 0]"] ;
486 -> 488 ;
489 [label="x[3] <= 1.5\ngini = 0.32\nsamples = 5\nvalue = [4, 1]"] ;
483 -> 489 ;
490 [label="gini = 0.0\nsamples = 1\nvalue = [0, 1]"] ;
489 -> 490 ;
491 [label="gini = 0.0\nsamples = 4\nvalue = [4, 0]"] ;
489 -> 491 ;
492 [label="gini = 0.0\nsamples = 1\nvalue = [0, 1]"] ;
474 -> 492 ;
493 [label="gini = 0.0\nsamples = 2\nvalue = [2, 0]"] ;
471 -> 493 ;
494 [label="x[0] <= 355000.0\ngini = 0.219\nsamples = 8\nvalue = [7, 1]"] ;
470 -> 494 ;
495 [label="gini = 0.0\nsamples = 1\nvalue = [0, 1]"] ;
494 -> 495 ;
496 [label="gini = 0.0\nsamples = 7\nvalue = [7, 0]"] ;
494 -> 496 ;
497 [label="gini = 0.0\nsamples = 1\nvalue = [0, 1]"] ;
469 -> 497 ;
498 [label="gini = 0.0\nsamples = 4\nvalue = [4, 0]"] ;
468 -> 498 ;
499 [label="gini = 0.0\nsamples = 1\nvalue = [0, 1]"] ;
467 -> 499 ;
500 [label="gini = 0.0\nsamples = 1\nvalue = [0, 1]"] ;
466 -> 500 ;
501 [label="x[4] <= 43.5\ngini = 0.498\nsamples = 101\nvalue = [47, 54]"] ;
463 -> 501 ;
502 [label="x[4] <= 40.5\ngini = 0.482\nsamples = 74\nvalue = [30, 44]"] ;
501 -> 502 ;
503 [label="x[4] <= 39.5\ngini = 0.496\nsamples = 57\nvalue = [26, 31]"] ;
502 -> 503 ;
504 [label="x[0] <= 405000.0\ngini = 0.484\nsamples = 51\nvalue = [21, 30]"] ;
503 -> 504 ;
505 [label="x[18] <= 61.5\ngini = 0.444\nsamples = 36\nvalue = [12, 24]"] ;
504 -> 505 ;
506 [label="x[2] <= 1.5\ngini = 0.415\nsamples = 34\nvalue = [10, 24]"] ;
505 -> 506 ;
507 [label="x[4] <= 38.5\ngini = 0.208\nsamples = 17\nvalue = [2, 15]"] ;
506 -> 507 ;
508 [label="x[4] <= 33.5\ngini = 0.133\nsamples = 14\nvalue = [1, 13]"] ;
507 -> 508 ;
509 [label="x[0] <= 350000.0\ngini = 0.375\nsamples = 4\nvalue = [1, 3]"] ;
508 -> 509 ;
510 [label="gini = 0.0\nsamples = 2\nvalue = [0, 2]"] ;
509 -> 510 ;
511 [label="x[5] <= -0.5\ngini = 0.5\nsamples = 2\nvalue = [1, 1]"] ;
509 -> 511 ;
512 [label="gini = 0.0\nsamples = 1\nvalue = [0, 1]"] ;
511 -> 512 ;
513 [label="gini = 0.0\nsamples = 1\nvalue = [1, 0]"] ;
511 -> 513 ;
514 [label="gini = 0.0\nsamples = 10\nvalue = [0, 10]"] ;
508 -> 514 ;
515 [label="x[0] <= 370000.0\ngini = 0.444\nsamples = 3\nvalue = [1, 2]"] ;
507 -> 515 ;
516 [label="gini = 0.0\nsamples = 1\nvalue = [1, 0]"] ;
515 -> 516 ;
517 [label="gini = 0.0\nsamples = 2\nvalue = [0, 2]"] ;
515 -> 517 ;
518 [label="x[0] <= 365000.0\ngini = 0.498\nsamples = 17\nvalue = [8, 9]"] ;
506 -> 518 ;
519 [label="x[4] <= 38.5\ngini = 0.49\nsamples = 14\nvalue = [8, 6]"] ;
518 -> 519 ;
520 [label="x[3] <= 1.5\ngini = 0.473\nsamples = 13\nvalue = [8, 5]"] ;
519 -> 520 ;
521 [label="x[5] <= 0.0\ngini = 0.278\nsamples = 6\nvalue = [5, 1]"] ;
520 -> 521 ;
522 [label="gini = 0.0\nsamples = 3\nvalue = [3, 0]"] ;
521 -> 522 ;
523 [label="x[4] <= 37.5\ngini = 0.444\nsamples = 3\nvalue = [2, 1]"] ;
521 -> 523 ;
524 [label="gini = 0.5\nsamples = 2\nvalue = [1, 1]"] ;
523 -> 524 ;
525 [label="gini = 0.0\nsamples = 1\nvalue = [1, 0]"] ;
523 -> 525 ;
526 [label="x[4] <= 34.5\ngini = 0.49\nsamples = 7\nvalue = [3, 4]"] ;
520 -> 526 ;
527 [label="x[1] <= 1.5\ngini = 0.48\nsamples = 5\nvalue = [3, 2]"] ;
526 -> 527 ;
528 [label="x[5] <= -0.5\ngini = 0.444\nsamples = 3\nvalue = [1, 2]"] ;
527 -> 528 ;
529 [label="gini = 0.0\nsamples = 1\nvalue = [1, 0]"] ;
528 -> 529 ;
530 [label="gini = 0.0\nsamples = 2\nvalue = [0, 2]"] ;
528 -> 530 ;
531 [label="gini = 0.0\nsamples = 2\nvalue = [2, 0]"] ;
527 -> 531 ;
532 [label="gini = 0.0\nsamples = 2\nvalue = [0, 2]"] ;
526 -> 532 ;
533 [label="gini = 0.0\nsamples = 1\nvalue = [0, 1]"] ;
519 -> 533 ;
534 [label="gini = 0.0\nsamples = 3\nvalue = [0, 3]"] ;
518 -> 534 ;
535 [label="gini = 0.0\nsamples = 2\nvalue = [2, 0]"] ;
505 -> 535 ;
536 [label="x[17] <= 1049.0\ngini = 0.48\nsamples = 15\nvalue = [9, 6]"] ;
504 -> 536 ;
537 [label="x[0] <= 460000.0\ngini = 0.426\nsamples = 13\nvalue = [9, 4]"] ;
536 -> 537 ;
538 [label="x[2] <= 1.5\ngini = 0.219\nsamples = 8\nvalue = [7, 1]"] ;
537 -> 538 ;
539 [label="gini = 0.0\nsamples = 6\nvalue = [6, 0]"] ;
538 -> 539 ;
540 [label="x[3] <= 1.5\ngini = 0.5\nsamples = 2\nvalue = [1, 1]"] ;
538 -> 540 ;
541 [label="gini = 0.0\nsamples = 1\nvalue = [1, 0]"] ;
540 -> 541 ;
542 [label="gini = 0.0\nsamples = 1\nvalue = [0, 1]"] ;
540 -> 542 ;
543 [label="x[4] <= 38.0\ngini = 0.48\nsamples = 5\nvalue = [2, 3]"] ;
537 -> 543 ;
544 [label="gini = 0.0\nsamples = 3\nvalue = [0, 3]"] ;
543 -> 544 ;
545 [label="gini = 0.0\nsamples = 2\nvalue = [2, 0]"] ;
543 -> 545 ;
546 [label="gini = 0.0\nsamples = 2\nvalue = [0, 2]"] ;
536 -> 546 ;
547 [label="x[1] <= 1.5\ngini = 0.278\nsamples = 6\nvalue = [5, 1]"] ;
503 -> 547 ;
548 [label="x[0] <= 365000.0\ngini = 0.5\nsamples = 2\nvalue = [1, 1]"] ;
547 -> 548 ;
549 [label="gini = 0.0\nsamples = 1\nvalue = [1, 0]"] ;
548 -> 549 ;
550 [label="gini = 0.0\nsamples = 1\nvalue = [0, 1]"] ;
548 -> 550 ;
551 [label="gini = 0.0\nsamples = 4\nvalue = [4, 0]"] ;
547 -> 551 ;
552 [label="x[2] <= 2.5\ngini = 0.36\nsamples = 17\nvalue = [4, 13]"] ;
502 -> 552 ;
553 [label="x[0] <= 395000.0\ngini = 0.408\nsamples = 14\nvalue = [4, 10]"] ;
552 -> 553 ;
554 [label="x[0] <= 365000.0\ngini = 0.469\nsamples = 8\nvalue = [3, 5]"] ;
553 -> 554 ;
555 [label="x[1] <= 1.5\ngini = 0.408\nsamples = 7\nvalue = [2, 5]"] ;
554 -> 555 ;
556 [label="gini = 0.0\nsamples = 4\nvalue = [0, 4]"] ;
555 -> 556 ;
557 [label="x[4] <= 41.5\ngini = 0.444\nsamples = 3\nvalue = [2, 1]"] ;
555 -> 557 ;
558 [label="gini = 0.0\nsamples = 1\nvalue = [0, 1]"] ;
557 -> 558 ;
559 [label="gini = 0.0\nsamples = 2\nvalue = [2, 0]"] ;
557 -> 559 ;
560 [label="gini = 0.0\nsamples = 1\nvalue = [1, 0]"] ;
554 -> 560 ;
561 [label="x[4] <= 42.5\ngini = 0.278\nsamples = 6\nvalue = [1, 5]"] ;
553 -> 561 ;
562 [label="x[1] <= 1.5\ngini = 0.375\nsamples = 4\nvalue = [1, 3]"] ;
561 -> 562 ;
563 [label="x[3] <= 1.5\ngini = 0.5\nsamples = 2\nvalue = [1, 1]"] ;
562 -> 563 ;
564 [label="gini = 0.0\nsamples = 1\nvalue = [1, 0]"] ;
563 -> 564 ;
565 [label="gini = 0.0\nsamples = 1\nvalue = [0, 1]"] ;
563 -> 565 ;
566 [label="gini = 0.0\nsamples = 2\nvalue = [0, 2]"] ;
562 -> 566 ;
567 [label="gini = 0.0\nsamples = 2\nvalue = [0, 2]"] ;
561 -> 567 ;
568 [label="gini = 0.0\nsamples = 3\nvalue = [0, 3]"] ;
552 -> 568 ;
569 [label="x[12] <= 2706.0\ngini = 0.466\nsamples = 27\nvalue = [17, 10]"] ;
501 -> 569 ;
570 [label="x[12] <= 350.0\ngini = 0.453\nsamples = 26\nvalue = [17, 9]"] ;
569 -> 570 ;
571 [label="x[3] <= 1.5\ngini = 0.483\nsamples = 22\nvalue = [13, 9]"] ;
570 -> 571 ;
572 [label="x[5] <= -0.5\ngini = 0.444\nsamples = 18\nvalue = [12, 6]"] ;
571 -> 572 ;
573 [label="x[2] <= 1.5\ngini = 0.245\nsamples = 7\nvalue = [6, 1]"] ;
572 -> 573 ;
574 [label="x[4] <= 49.5\ngini = 0.5\nsamples = 2\nvalue = [1, 1]"] ;
573 -> 574 ;
575 [label="gini = 0.0\nsamples = 1\nvalue = [1, 0]"] ;
574 -> 575 ;
576 [label="gini = 0.0\nsamples = 1\nvalue = [0, 1]"] ;
574 -> 576 ;
577 [label="gini = 0.0\nsamples = 5\nvalue = [5, 0]"] ;
573 -> 577 ;
578 [label="x[1] <= 1.5\ngini = 0.496\nsamples = 11\nvalue = [6, 5]"] ;
572 -> 578 ;
579 [label="x[0] <= 545000.0\ngini = 0.375\nsamples = 4\nvalue = [1, 3]"] ;
578 -> 579 ;
580 [label="gini = 0.0\nsamples = 3\nvalue = [0, 3]"] ;
579 -> 580 ;
581 [label="gini = 0.0\nsamples = 1\nvalue = [1, 0]"] ;
579 -> 581 ;
582 [label="x[4] <= 46.5\ngini = 0.408\nsamples = 7\nvalue = [5, 2]"] ;
578 -> 582 ;
583 [label="x[0] <= 340000.0\ngini = 0.5\nsamples = 4\nvalue = [2, 2]"] ;
582 -> 583 ;
584 [label="gini = 0.0\nsamples = 1\nvalue = [1, 0]"] ;
583 -> 584 ;
585 [label="x[2] <= 1.5\ngini = 0.444\nsamples = 3\nvalue = [1, 2]"] ;
583 -> 585 ;
586 [label="gini = 0.0\nsamples = 1\nvalue = [1, 0]"] ;
585 -> 586 ;
587 [label="gini = 0.0\nsamples = 2\nvalue = [0, 2]"] ;
585 -> 587 ;
588 [label="gini = 0.0\nsamples = 3\nvalue = [3, 0]"] ;
582 -> 588 ;
589 [label="x[1] <= 1.5\ngini = 0.375\nsamples = 4\nvalue = [1, 3]"] ;
571 -> 589 ;
590 [label="gini = 0.0\nsamples = 1\nvalue = [1, 0]"] ;
589 -> 590 ;
591 [label="gini = 0.0\nsamples = 3\nvalue = [0, 3]"] ;
589 -> 591 ;
592 [label="gini = 0.0\nsamples = 4\nvalue = [4, 0]"] ;
570 -> 592 ;
593 [label="gini = 0.0\nsamples = 1\nvalue = [0, 1]"] ;
569 -> 593 ;
594 [label="gini = 0.0\nsamples = 7\nvalue = [7, 0]"] ;
456 -> 594 ;
595 [label="x[14] <= 39.5\ngini = 0.318\nsamples = 272\nvalue = [218, 54]"] ;
7 -> 595 ;
596 [label="x[11] <= 407.5\ngini = 0.287\nsamples = 248\nvalue = [205, 43]"] ;
595 -> 596 ;
597 [label="x[22] <= 4357.5\ngini = 0.267\nsamples = 239\nvalue = [201, 38]"] ;
596 -> 597 ;
598 [label="x[20] <= 50028.5\ngini = 0.295\nsamples = 211\nvalue = [173, 38]"] ;
597 -> 598 ;
599 [label="x[16] <= 3961.5\ngini = 0.286\nsamples = 208\nvalue = [172, 36]"] ;
598 -> 599 ;
600 [label="x[13] <= 404.5\ngini = 0.329\nsamples = 154\nvalue = [122, 32]"] ;
599 -> 600 ;
601 [label="x[18] <= 737.0\ngini = 0.367\nsamples = 128\nvalue = [97, 31]"] ;
600 -> 601 ;
602 [label="x[14] <= -25.5\ngini = 0.354\nsamples = 126\nvalue = [97, 29]"] ;
601 -> 602 ;
603 [label="x[14] <= -1587.0\ngini = 0.095\nsamples = 20\nvalue = [19, 1]"] ;
602 -> 603 ;
604 [label="x[3] <= 1.5\ngini = 0.5\nsamples = 2\nvalue = [1, 1]"] ;
603 -> 604 ;
605 [label="gini = 0.0\nsamples = 1\nvalue = [1, 0]"] ;
604 -> 605 ;
606 [label="gini = 0.0\nsamples = 1\nvalue = [0, 1]"] ;
604 -> 606 ;
607 [label="gini = 0.0\nsamples = 18\nvalue = [18, 0]"] ;
603 -> 607 ;
608 [label="x[4] <= 50.5\ngini = 0.389\nsamples = 106\nvalue = [78, 28]"] ;
602 -> 608 ;
609 [label="x[15] <= 595.5\ngini = 0.375\nsamples = 104\nvalue = [78, 26]"] ;
608 -> 609 ;
610 [label="x[20] <= 30.0\ngini = 0.304\nsamples = 75\nvalue = [61, 14]"] ;
609 -> 610 ;
611 [label="x[0] <= 280000.0\ngini = 0.371\nsamples = 57\nvalue = [43, 14]"] ;
610 -> 611 ;
612 [label="x[17] <= 1711.5\ngini = 0.429\nsamples = 45\nvalue = [31, 14]"] ;
611 -> 612 ;
613 [label="x[16] <= 2105.0\ngini = 0.455\nsamples = 40\nvalue = [26, 14]"] ;
612 -> 613 ;
614 [label="x[21] <= 307.5\ngini = 0.432\nsamples = 38\nvalue = [26, 12]"] ;
613 -> 614 ;
615 [label="x[0] <= 80000.0\ngini = 0.5\nsamples = 12\nvalue = [6, 6]"] ;
614 -> 615 ;
616 [label="gini = 0.0\nsamples = 3\nvalue = [3, 0]"] ;
615 -> 616 ;
617 [label="x[11] <= 133.0\ngini = 0.444\nsamples = 9\nvalue = [3, 6]"] ;
615 -> 617 ;
618 [label="x[21] <= 204.5\ngini = 0.375\nsamples = 8\nvalue = [2, 6]"] ;
617 -> 618 ;
619 [label="x[22] <= 505.0\ngini = 0.5\nsamples = 4\nvalue = [2, 2]"] ;
618 -> 619 ;
620 [label="gini = 0.0\nsamples = 2\nvalue = [2, 0]"] ;
619 -> 620 ;
621 [label="gini = 0.0\nsamples = 2\nvalue = [0, 2]"] ;
619 -> 621 ;
622 [label="gini = 0.0\nsamples = 4\nvalue = [0, 4]"] ;
618 -> 622 ;
623 [label="gini = 0.0\nsamples = 1\nvalue = [1, 0]"] ;
617 -> 623 ;
624 [label="x[0] <= 255000.0\ngini = 0.355\nsamples = 26\nvalue = [20, 6]"] ;
614 -> 624 ;
625 [label="x[4] <= 26.5\ngini = 0.32\nsamples = 25\nvalue = [20, 5]"] ;
624 -> 625 ;
626 [label="x[4] <= 24.0\ngini = 0.5\nsamples = 4\nvalue = [2, 2]"] ;
625 -> 626 ;
627 [label="gini = 0.0\nsamples = 2\nvalue = [2, 0]"] ;
626 -> 627 ;
628 [label="gini = 0.0\nsamples = 2\nvalue = [0, 2]"] ;
626 -> 628 ;
629 [label="x[4] <= 45.5\ngini = 0.245\nsamples = 21\nvalue = [18, 3]"] ;
625 -> 629 ;
630 [label="x[16] <= 935.0\ngini = 0.188\nsamples = 19\nvalue = [17, 2]"] ;
629 -> 630 ;
631 [label="gini = 0.0\nsamples = 10\nvalue = [10, 0]"] ;
630 -> 631 ;
632 [label="x[21] <= 998.0\ngini = 0.346\nsamples = 9\nvalue = [7, 2]"] ;
630 -> 632 ;
633 [label="gini = 0.0\nsamples = 1\nvalue = [0, 1]"] ;
632 -> 633 ;
634 [label="x[0] <= 210000.0\ngini = 0.219\nsamples = 8\nvalue = [7, 1]"] ;
632 -> 634 ;
635 [label="gini = 0.0\nsamples = 6\nvalue = [6, 0]"] ;
634 -> 635 ;
636 [label="x[16] <= 1166.0\ngini = 0.5\nsamples = 2\nvalue = [1, 1]"] ;
634 -> 636 ;
637 [label="gini = 0.0\nsamples = 1\nvalue = [1, 0]"] ;
636 -> 637 ;
638 [label="gini = 0.0\nsamples = 1\nvalue = [0, 1]"] ;
636 -> 638 ;
639 [label="x[1] <= 1.5\ngini = 0.5\nsamples = 2\nvalue = [1, 1]"] ;
629 -> 639 ;
640 [label="gini = 0.0\nsamples = 1\nvalue = [1, 0]"] ;
639 -> 640 ;
641 [label="gini = 0.0\nsamples = 1\nvalue = [0, 1]"] ;
639 -> 641 ;
642 [label="gini = 0.0\nsamples = 1\nvalue = [0, 1]"] ;
624 -> 642 ;
643 [label="gini = 0.0\nsamples = 2\nvalue = [0, 2]"] ;
613 -> 643 ;
644 [label="gini = 0.0\nsamples = 5\nvalue = [5, 0]"] ;
612 -> 644 ;
645 [label="gini = 0.0\nsamples = 12\nvalue = [12, 0]"] ;
611 -> 645 ;
646 [label="gini = 0.0\nsamples = 18\nvalue = [18, 0]"] ;
610 -> 646 ;
647 [label="x[15] <= 1954.5\ngini = 0.485\nsamples = 29\nvalue = [17, 12]"] ;
609 -> 647 ;
648 [label="x[16] <= 846.0\ngini = 0.475\nsamples = 18\nvalue = [7, 11]"] ;
647 -> 648 ;
649 [label="x[0] <= 135000.0\ngini = 0.444\nsamples = 9\nvalue = [6, 3]"] ;
648 -> 649 ;
650 [label="x[15] <= 961.0\ngini = 0.375\nsamples = 4\nvalue = [1, 3]"] ;
649 -> 650 ;
651 [label="gini = 0.0\nsamples = 3\nvalue = [0, 3]"] ;
650 -> 651 ;
652 [label="gini = 0.0\nsamples = 1\nvalue = [1, 0]"] ;
650 -> 652 ;
653 [label="gini = 0.0\nsamples = 5\nvalue = [5, 0]"] ;
649 -> 653 ;
654 [label="x[11] <= -4.0\ngini = 0.198\nsamples = 9\nvalue = [1, 8]"] ;
648 -> 654 ;
655 [label="x[21] <= 2556.5\ngini = 0.5\nsamples = 2\nvalue = [1, 1]"] ;
654 -> 655 ;
656 [label="gini = 0.0\nsamples = 1\nvalue = [0, 1]"] ;
655 -> 656 ;
657 [label="gini = 0.0\nsamples = 1\nvalue = [1, 0]"] ;
655 -> 657 ;
658 [label="gini = 0.0\nsamples = 7\nvalue = [0, 7]"] ;
654 -> 658 ;
659 [label="x[4] <= 43.0\ngini = 0.165\nsamples = 11\nvalue = [10, 1]"] ;
647 -> 659 ;
660 [label="gini = 0.0\nsamples = 10\nvalue = [10, 0]"] ;
659 -> 660 ;
661 [label="gini = 0.0\nsamples = 1\nvalue = [0, 1]"] ;
659 -> 661 ;
662 [label="gini = 0.0\nsamples = 2\nvalue = [0, 2]"] ;
608 -> 662 ;
663 [label="gini = 0.0\nsamples = 2\nvalue = [0, 2]"] ;
601 -> 663 ;
664 [label="x[18] <= 1374.0\ngini = 0.074\nsamples = 26\nvalue = [25, 1]"] ;
600 -> 664 ;
665 [label="gini = 0.0\nsamples = 24\nvalue = [24, 0]"] ;
664 -> 665 ;
666 [label="x[15] <= 5260.0\ngini = 0.5\nsamples = 2\nvalue = [1, 1]"] ;
664 -> 666 ;
667 [label="gini = 0.0\nsamples = 1\nvalue = [0, 1]"] ;
666 -> 667 ;
668 [label="gini = 0.0\nsamples = 1\nvalue = [1, 0]"] ;
666 -> 668 ;
669 [label="x[18] <= 730.5\ngini = 0.137\nsamples = 54\nvalue = [50, 4]"] ;
599 -> 669 ;
670 [label="x[0] <= 25000.0\ngini = 0.077\nsamples = 50\nvalue = [48, 2]"] ;
669 -> 670 ;
671 [label="x[20] <= 111.0\ngini = 0.375\nsamples = 4\nvalue = [3, 1]"] ;
670 -> 671 ;
672 [label="gini = 0.0\nsamples = 1\nvalue = [0, 1]"] ;
671 -> 672 ;
673 [label="gini = 0.0\nsamples = 3\nvalue = [3, 0]"] ;
671 -> 673 ;
674 [label="x[6] <= -1.5\ngini = 0.043\nsamples = 46\nvalue = [45, 1]"] ;
670 -> 674 ;
675 [label="gini = 0.0\nsamples = 40\nvalue = [40, 0]"] ;
674 -> 675 ;
676 [label="x[12] <= 241.0\ngini = 0.278\nsamples = 6\nvalue = [5, 1]"] ;
674 -> 676 ;
677 [label="gini = 0.0\nsamples = 1\nvalue = [0, 1]"] ;
676 -> 677 ;
678 [label="gini = 0.0\nsamples = 5\nvalue = [5, 0]"] ;
676 -> 678 ;
679 [label="x[22] <= 2315.5\ngini = 0.5\nsamples = 4\nvalue = [2, 2]"] ;
669 -> 679 ;
680 [label="gini = 0.0\nsamples = 2\nvalue = [0, 2]"] ;
679 -> 680 ;
681 [label="gini = 0.0\nsamples = 2\nvalue = [2, 0]"] ;
679 -> 681 ;
682 [label="x[4] <= 34.0\ngini = 0.444\nsamples = 3\nvalue = [1, 2]"] ;
598 -> 682 ;
683 [label="gini = 0.0\nsamples = 1\nvalue = [1, 0]"] ;
682 -> 683 ;
684 [label="gini = 0.0\nsamples = 2\nvalue = [0, 2]"] ;
682 -> 684 ;
685 [label="gini = 0.0\nsamples = 28\nvalue = [28, 0]"] ;
597 -> 685 ;
686 [label="x[21] <= 268.5\ngini = 0.494\nsamples = 9\nvalue = [4, 5]"] ;
596 -> 686 ;
687 [label="gini = 0.0\nsamples = 3\nvalue = [3, 0]"] ;
686 -> 687 ;
688 [label="x[2] <= 1.5\ngini = 0.278\nsamples = 6\nvalue = [1, 5]"] ;
686 -> 688 ;
689 [label="gini = 0.0\nsamples = 4\nvalue = [0, 4]"] ;
688 -> 689 ;
690 [label="x[22] <= 11308.5\ngini = 0.5\nsamples = 2\nvalue = [1, 1]"] ;
688 -> 690 ;
691 [label="gini = 0.0\nsamples = 1\nvalue = [1, 0]"] ;
690 -> 691 ;
692 [label="gini = 0.0\nsamples = 1\nvalue = [0, 1]"] ;
690 -> 692 ;
693 [label="x[0] <= 240000.0\ngini = 0.497\nsamples = 24\nvalue = [13, 11]"] ;
595 -> 693 ;
694 [label="x[21] <= 1001.0\ngini = 0.415\nsamples = 17\nvalue = [12, 5]"] ;
693 -> 694 ;
695 [label="x[22] <= 911.0\ngini = 0.165\nsamples = 11\nvalue = [10, 1]"] ;
694 -> 695 ;
696 [label="gini = 0.0\nsamples = 10\nvalue = [10, 0]"] ;
695 -> 696 ;
697 [label="gini = 0.0\nsamples = 1\nvalue = [0, 1]"] ;
695 -> 697 ;
698 [label="x[11] <= 273.0\ngini = 0.444\nsamples = 6\nvalue = [2, 4]"] ;
694 -> 698 ;
699 [label="gini = 0.0\nsamples = 4\nvalue = [0, 4]"] ;
698 -> 699 ;
700 [label="gini = 0.0\nsamples = 2\nvalue = [2, 0]"] ;
698 -> 700 ;
701 [label="x[9] <= -1.5\ngini = 0.245\nsamples = 7\nvalue = [1, 6]"] ;
693 -> 701 ;
702 [label="gini = 0.0\nsamples = 1\nvalue = [1, 0]"] ;
701 -> 702 ;
703 [label="gini = 0.0\nsamples = 6\nvalue = [0, 6]"] ;
701 -> 703 ;
704 [label="x[5] <= 0.0\ngini = 0.499\nsamples = 62\nvalue = [30, 32]"] ;
6 -> 704 ;
705 [label="x[0] <= 180000.0\ngini = 0.397\nsamples = 22\nvalue = [16, 6]"] ;
704 -> 705 ;
706 [label="gini = 0.0\nsamples = 7\nvalue = [7, 0]"] ;
705 -> 706 ;
707 [label="x[17] <= 420.5\ngini = 0.48\nsamples = 15\nvalue = [9, 6]"] ;
705 -> 707 ;
708 [label="x[0] <= 355000.0\ngini = 0.496\nsamples = 11\nvalue = [5, 6]"] ;
707 -> 708 ;
709 [label="x[0] <= 290000.0\ngini = 0.469\nsamples = 8\nvalue = [5, 3]"] ;
708 -> 709 ;
710 [label="x[0] <= 270000.0\ngini = 0.375\nsamples = 4\nvalue = [1, 3]"] ;
709 -> 710 ;
711 [label="gini = 0.0\nsamples = 2\nvalue = [0, 2]"] ;
710 -> 711 ;
712 [label="x[13] <= -100.0\ngini = 0.5\nsamples = 2\nvalue = [1, 1]"] ;
710 -> 712 ;
713 [label="gini = 0.0\nsamples = 1\nvalue = [0, 1]"] ;
712 -> 713 ;
714 [label="gini = 0.0\nsamples = 1\nvalue = [1, 0]"] ;
712 -> 714 ;
715 [label="gini = 0.0\nsamples = 4\nvalue = [4, 0]"] ;
709 -> 715 ;
716 [label="gini = 0.0\nsamples = 3\nvalue = [0, 3]"] ;
708 -> 716 ;
717 [label="gini = 0.0\nsamples = 4\nvalue = [4, 0]"] ;
707 -> 717 ;
718 [label="x[10] <= -1.5\ngini = 0.455\nsamples = 40\nvalue = [14, 26]"] ;
704 -> 718 ;
719 [label="x[22] <= 197.5\ngini = 0.227\nsamples = 23\nvalue = [3, 20]"] ;
718 -> 719 ;
720 [label="x[0] <= 145000.0\ngini = 0.165\nsamples = 22\nvalue = [2, 20]"] ;
719 -> 720 ;
721 [label="gini = 0.0\nsamples = 7\nvalue = [0, 7]"] ;
720 -> 721 ;
722 [label="x[4] <= 55.5\ngini = 0.231\nsamples = 15\nvalue = [2, 13]"] ;
720 -> 722 ;
723 [label="gini = 0.0\nsamples = 1\nvalue = [1, 0]"] ;
722 -> 723 ;
724 [label="x[0] <= 165000.0\ngini = 0.133\nsamples = 14\nvalue = [1, 13]"] ;
722 -> 724 ;
725 [label="gini = 0.0\nsamples = 1\nvalue = [1, 0]"] ;
724 -> 725 ;
726 [label="gini = 0.0\nsamples = 13\nvalue = [0, 13]"] ;
724 -> 726 ;
727 [label="gini = 0.0\nsamples = 1\nvalue = [1, 0]"] ;
719 -> 727 ;
728 [label="x[11] <= -1.0\ngini = 0.457\nsamples = 17\nvalue = [11, 6]"] ;
718 -> 728 ;
729 [label="x[9] <= -1.5\ngini = 0.375\nsamples = 4\nvalue = [1, 3]"] ;
728 -> 729 ;
730 [label="gini = 0.0\nsamples = 1\nvalue = [1, 0]"] ;
729 -> 730 ;
731 [label="gini = 0.0\nsamples = 3\nvalue = [0, 3]"] ;
729 -> 731 ;
732 [label="x[15] <= 693.5\ngini = 0.355\nsamples = 13\nvalue = [10, 3]"] ;
728 -> 732 ;
733 [label="x[16] <= 636.0\ngini = 0.5\nsamples = 6\nvalue = [3, 3]"] ;
732 -> 733 ;
734 [label="gini = 0.0\nsamples = 2\nvalue = [2, 0]"] ;
733 -> 734 ;
735 [label="x[17] <= 2320.0\ngini = 0.375\nsamples = 4\nvalue = [1, 3]"] ;
733 -> 735 ;
736 [label="gini = 0.0\nsamples = 3\nvalue = [0, 3]"] ;
735 -> 736 ;
737 [label="gini = 0.0\nsamples = 1\nvalue = [1, 0]"] ;
735 -> 737 ;
738 [label="gini = 0.0\nsamples = 7\nvalue = [7, 0]"] ;
732 -> 738 ;
739 [label="x[20] <= 735.0\ngini = 0.291\nsamples = 843\nvalue = [694, 149]"] ;
5 -> 739 ;
740 [label="x[11] <= 525.0\ngini = 0.332\nsamples = 591\nvalue = [467, 124]"] ;
739 -> 740 ;
741 [label="x[12] <= 31021.0\ngini = 0.327\nsamples = 588\nvalue = [467, 121]"] ;
740 -> 741 ;
742 [label="x[9] <= -1.5\ngini = 0.321\nsamples = 583\nvalue = [466, 117]"] ;
741 -> 742 ;
743 [label="x[3] <= 0.5\ngini = 0.176\nsamples = 113\nvalue = [102, 11]"] ;
742 -> 743 ;
744 [label="gini = 0.0\nsamples = 1\nvalue = [0, 1]"] ;
743 -> 744 ;
745 [label="x[11] <= 370.0\ngini = 0.163\nsamples = 112\nvalue = [102, 10]"] ;
743 -> 745 ;
746 [label="x[14] <= 30988.5\ngini = 0.089\nsamples = 86\nvalue = [82, 4]"] ;
745 -> 746 ;
747 [label="x[11] <= -168.0\ngini = 0.069\nsamples = 84\nvalue = [81, 3]"] ;
746 -> 747 ;
748 [label="x[13] <= -129.0\ngini = 0.444\nsamples = 3\nvalue = [2, 1]"] ;
747 -> 748 ;
749 [label="gini = 0.0\nsamples = 2\nvalue = [2, 0]"] ;
748 -> 749 ;
750 [label="gini = 0.0\nsamples = 1\nvalue = [0, 1]"] ;
748 -> 750 ;
751 [label="x[12] <= 599.0\ngini = 0.048\nsamples = 81\nvalue = [79, 2]"] ;
747 -> 751 ;
752 [label="gini = 0.0\nsamples = 62\nvalue = [62, 0]"] ;
751 -> 752 ;
753 [label="x[12] <= 683.0\ngini = 0.188\nsamples = 19\nvalue = [17, 2]"] ;
751 -> 753 ;
754 [label="gini = 0.0\nsamples = 1\nvalue = [0, 1]"] ;
753 -> 754 ;
755 [label="x[11] <= 212.5\ngini = 0.105\nsamples = 18\nvalue = [17, 1]"] ;
753 -> 755 ;
756 [label="gini = 0.0\nsamples = 16\nvalue = [16, 0]"] ;
755 -> 756 ;
757 [label="x[12] <= 1012.0\ngini = 0.5\nsamples = 2\nvalue = [1, 1]"] ;
755 -> 757 ;
758 [label="gini = 0.0\nsamples = 1\nvalue = [1, 0]"] ;
757 -> 758 ;
759 [label="gini = 0.0\nsamples = 1\nvalue = [0, 1]"] ;
757 -> 759 ;
760 [label="x[3] <= 1.5\ngini = 0.5\nsamples = 2\nvalue = [1, 1]"] ;
746 -> 760 ;
761 [label="gini = 0.0\nsamples = 1\nvalue = [0, 1]"] ;
760 -> 761 ;
762 [label="gini = 0.0\nsamples = 1\nvalue = [1, 0]"] ;
760 -> 762 ;
763 [label="x[18] <= 738.0\ngini = 0.355\nsamples = 26\nvalue = [20, 6]"] ;
745 -> 763 ;
764 [label="x[11] <= 380.5\ngini = 0.227\nsamples = 23\nvalue = [20, 3]"] ;
763 -> 764 ;
765 [label="gini = 0.0\nsamples = 1\nvalue = [0, 1]"] ;
764 -> 765 ;
766 [label="x[19] <= 423.0\ngini = 0.165\nsamples = 22\nvalue = [20, 2]"] ;
764 -> 766 ;
767 [label="gini = 0.0\nsamples = 14\nvalue = [14, 0]"] ;
766 -> 767 ;
768 [label="x[12] <= 605.0\ngini = 0.375\nsamples = 8\nvalue = [6, 2]"] ;
766 -> 768 ;
769 [label="x[22] <= 1214.5\ngini = 0.444\nsamples = 3\nvalue = [1, 2]"] ;
768 -> 769 ;
770 [label="gini = 0.0\nsamples = 2\nvalue = [0, 2]"] ;
769 -> 770 ;
771 [label="gini = 0.0\nsamples = 1\nvalue = [1, 0]"] ;
769 -> 771 ;
772 [label="gini = 0.0\nsamples = 5\nvalue = [5, 0]"] ;
768 -> 772 ;
773 [label="gini = 0.0\nsamples = 3\nvalue = [0, 3]"] ;
763 -> 773 ;
774 [label="x[14] <= 149.0\ngini = 0.349\nsamples = 470\nvalue = [364, 106]"] ;
742 -> 774 ;
775 [label="x[1] <= 1.5\ngini = 0.486\nsamples = 12\nvalue = [5, 7]"] ;
774 -> 775 ;
776 [label="gini = 0.0\nsamples = 3\nvalue = [3, 0]"] ;
775 -> 776 ;
777 [label="x[15] <= 64.0\ngini = 0.346\nsamples = 9\nvalue = [2, 7]"] ;
775 -> 777 ;
778 [label="x[20] <= 225.0\ngini = 0.444\nsamples = 3\nvalue = [2, 1]"] ;
777 -> 778 ;
779 [label="gini = 0.0\nsamples = 2\nvalue = [2, 0]"] ;
778 -> 779 ;
780 [label="gini = 0.0\nsamples = 1\nvalue = [0, 1]"] ;
778 -> 780 ;
781 [label="gini = 0.0\nsamples = 6\nvalue = [0, 6]"] ;
777 -> 781 ;
782 [label="x[13] <= -1181.0\ngini = 0.339\nsamples = 458\nvalue = [359, 99]"] ;
774 -> 782 ;
783 [label="x[12] <= -4806.5\ngini = 0.444\nsamples = 6\nvalue = [2, 4]"] ;
782 -> 783 ;
784 [label="gini = 0.0\nsamples = 2\nvalue = [2, 0]"] ;
783 -> 784 ;
785 [label="gini = 0.0\nsamples = 4\nvalue = [0, 4]"] ;
783 -> 785 ;
786 [label="x[12] <= 206.0\ngini = 0.332\nsamples = 452\nvalue = [357, 95]"] ;
782 -> 786 ;
787 [label="x[3] <= 1.5\ngini = 0.219\nsamples = 120\nvalue = [105, 15]"] ;
786 -> 787 ;
788 [label="x[16] <= 198.0\ngini = 0.364\nsamples = 46\nvalue = [35, 11]"] ;
787 -> 788 ;
789 [label="x[20] <= 130.0\ngini = 0.492\nsamples = 16\nvalue = [9, 7]"] ;
788 -> 789 ;
790 [label="x[4] <= 34.5\ngini = 0.463\nsamples = 11\nvalue = [4, 7]"] ;
789 -> 790 ;
791 [label="gini = 0.0\nsamples = 2\nvalue = [2, 0]"] ;
790 -> 791 ;
792 [label="x[4] <= 46.5\ngini = 0.346\nsamples = 9\nvalue = [2, 7]"] ;
790 -> 792 ;
793 [label="gini = 0.0\nsamples = 6\nvalue = [0, 6]"] ;
792 -> 793 ;
794 [label="x[14] <= 1500.0\ngini = 0.444\nsamples = 3\nvalue = [2, 1]"] ;
792 -> 794 ;
795 [label="gini = 0.0\nsamples = 1\nvalue = [0, 1]"] ;
794 -> 795 ;
796 [label="gini = 0.0\nsamples = 2\nvalue = [2, 0]"] ;
794 -> 796 ;
797 [label="gini = 0.0\nsamples = 5\nvalue = [5, 0]"] ;
789 -> 797 ;
798 [label="x[8] <= -1.5\ngini = 0.231\nsamples = 30\nvalue = [26, 4]"] ;
788 -> 798 ;
799 [label="gini = 0.0\nsamples = 1\nvalue = [0, 1]"] ;
798 -> 799 ;
800 [label="x[0] <= 110000.0\ngini = 0.185\nsamples = 29\nvalue = [26, 3]"] ;
798 -> 800 ;
801 [label="x[19] <= 450.0\ngini = 0.48\nsamples = 5\nvalue = [3, 2]"] ;
800 -> 801 ;
802 [label="gini = 0.0\nsamples = 2\nvalue = [0, 2]"] ;
801 -> 802 ;
803 [label="gini = 0.0\nsamples = 3\nvalue = [3, 0]"] ;
801 -> 803 ;
804 [label="x[20] <= 379.5\ngini = 0.08\nsamples = 24\nvalue = [23, 1]"] ;
800 -> 804 ;
805 [label="gini = 0.0\nsamples = 22\nvalue = [22, 0]"] ;
804 -> 805 ;
806 [label="x[9] <= -0.5\ngini = 0.5\nsamples = 2\nvalue = [1, 1]"] ;
804 -> 806 ;
807 [label="gini = 0.0\nsamples = 1\nvalue = [1, 0]"] ;
806 -> 807 ;
808 [label="gini = 0.0\nsamples = 1\nvalue = [0, 1]"] ;
806 -> 808 ;
809 [label="x[0] <= 345000.0\ngini = 0.102\nsamples = 74\nvalue = [70, 4]"] ;
787 -> 809 ;
810 [label="x[20] <= 474.0\ngini = 0.058\nsamples = 67\nvalue = [65, 2]"] ;
809 -> 810 ;
811 [label="x[11] <= 374.0\ngini = 0.031\nsamples = 64\nvalue = [63, 1]"] ;
810 -> 811 ;
812 [label="gini = 0.0\nsamples = 59\nvalue = [59, 0]"] ;
811 -> 812 ;
813 [label="x[0] <= 85000.0\ngini = 0.32\nsamples = 5\nvalue = [4, 1]"] ;
811 -> 813 ;
814 [label="gini = 0.0\nsamples = 1\nvalue = [0, 1]"] ;
813 -> 814 ;
815 [label="gini = 0.0\nsamples = 4\nvalue = [4, 0]"] ;
813 -> 815 ;
816 [label="x[15] <= 519.0\ngini = 0.444\nsamples = 3\nvalue = [2, 1]"] ;
810 -> 816 ;
817 [label="gini = 0.0\nsamples = 1\nvalue = [0, 1]"] ;
816 -> 817 ;
818 [label="gini = 0.0\nsamples = 2\nvalue = [2, 0]"] ;
816 -> 818 ;
819 [label="x[10] <= -1.5\ngini = 0.408\nsamples = 7\nvalue = [5, 2]"] ;
809 -> 819 ;
820 [label="gini = 0.0\nsamples = 2\nvalue = [0, 2]"] ;
819 -> 820 ;
821 [label="gini = 0.0\nsamples = 5\nvalue = [5, 0]"] ;
819 -> 821 ;
822 [label="x[10] <= 1.0\ngini = 0.366\nsamples = 332\nvalue = [252, 80]"] ;
786 -> 822 ;
823 [label="x[14] <= 764.0\ngini = 0.357\nsamples = 327\nvalue = [251, 76]"] ;
822 -> 823 ;
824 [label="x[7] <= -0.5\ngini = 0.408\nsamples = 196\nvalue = [140, 56]"] ;
823 -> 824 ;
825 [label="x[14] <= 496.0\ngini = 0.384\nsamples = 181\nvalue = [134, 47]"] ;
824 -> 825 ;
826 [label="x[12] <= 252.0\ngini = 0.342\nsamples = 155\nvalue = [121, 34]"] ;
825 -> 826 ;
827 [label="x[13] <= 269.0\ngini = 0.375\nsamples = 4\nvalue = [1, 3]"] ;
826 -> 827 ;
828 [label="gini = 0.0\nsamples = 3\nvalue = [0, 3]"] ;
827 -> 828 ;
829 [label="gini = 0.0\nsamples = 1\nvalue = [1, 0]"] ;
827 -> 829 ;
830 [label="x[4] <= 52.0\ngini = 0.326\nsamples = 151\nvalue = [120, 31]"] ;
826 -> 830 ;
831 [label="x[22] <= 53384.5\ngini = 0.301\nsamples = 141\nvalue = [115, 26]"] ;
830 -> 831 ;
832 [label="x[22] <= 393.0\ngini = 0.293\nsamples = 140\nvalue = [115, 25]"] ;
831 -> 832 ;
833 [label="x[0] <= 70000.0\ngini = 0.355\nsamples = 91\nvalue = [70, 21]"] ;
832 -> 833 ;
834 [label="x[1] <= 1.5\ngini = 0.5\nsamples = 12\nvalue = [6, 6]"] ;
833 -> 834 ;
835 [label="x[20] <= 508.0\ngini = 0.408\nsamples = 7\nvalue = [2, 5]"] ;
834 -> 835 ;
836 [label="gini = 0.0\nsamples = 5\nvalue = [0, 5]"] ;
835 -> 836 ;
837 [label="gini = 0.0\nsamples = 2\nvalue = [2, 0]"] ;
835 -> 837 ;
838 [label="x[4] <= 43.0\ngini = 0.32\nsamples = 5\nvalue = [4, 1]"] ;
834 -> 838 ;
839 [label="gini = 0.0\nsamples = 4\nvalue = [4, 0]"] ;
838 -> 839 ;
840 [label="gini = 0.0\nsamples = 1\nvalue = [0, 1]"] ;
838 -> 840 ;
841 [label="x[0] <= 245000.0\ngini = 0.308\nsamples = 79\nvalue = [64, 15]"] ;
833 -> 841 ;
842 [label="x[0] <= 190000.0\ngini = 0.359\nsamples = 64\nvalue = [49, 15]"] ;
841 -> 842 ;
843 [label="x[17] <= 1993.0\ngini = 0.255\nsamples = 40\nvalue = [34, 6]"] ;
842 -> 843 ;
844 [label="x[13] <= 325.5\ngini = 0.224\nsamples = 39\nvalue = [34, 5]"] ;
843 -> 844 ;
845 [label="gini = 0.0\nsamples = 15\nvalue = [15, 0]"] ;
844 -> 845 ;
846 [label="x[21] <= 686.0\ngini = 0.33\nsamples = 24\nvalue = [19, 5]"] ;
844 -> 846 ;
847 [label="x[4] <= 45.5\ngini = 0.287\nsamples = 23\nvalue = [19, 4]"] ;
846 -> 847 ;
848 [label="x[3] <= 1.5\ngini = 0.236\nsamples = 22\nvalue = [19, 3]"] ;
847 -> 848 ;
849 [label="x[4] <= 43.5\ngini = 0.124\nsamples = 15\nvalue = [14, 1]"] ;
848 -> 849 ;
850 [label="gini = 0.0\nsamples = 12\nvalue = [12, 0]"] ;
849 -> 850 ;
851 [label="x[0] <= 85000.0\ngini = 0.444\nsamples = 3\nvalue = [2, 1]"] ;
849 -> 851 ;
852 [label="gini = 0.0\nsamples = 1\nvalue = [1, 0]"] ;
851 -> 852 ;
853 [label="x[0] <= 95000.0\ngini = 0.5\nsamples = 2\nvalue = [1, 1]"] ;
851 -> 853 ;
854 [label="gini = 0.0\nsamples = 1\nvalue = [0, 1]"] ;
853 -> 854 ;
855 [label="gini = 0.0\nsamples = 1\nvalue = [1, 0]"] ;
853 -> 855 ;
856 [label="x[13] <= 332.5\ngini = 0.408\nsamples = 7\nvalue = [5, 2]"] ;
848 -> 856 ;
857 [label="gini = 0.0\nsamples = 2\nvalue = [0, 2]"] ;
856 -> 857 ;
858 [label="gini = 0.0\nsamples = 5\nvalue = [5, 0]"] ;
856 -> 858 ;
859 [label="gini = 0.0\nsamples = 1\nvalue = [0, 1]"] ;
847 -> 859 ;
860 [label="gini = 0.0\nsamples = 1\nvalue = [0, 1]"] ;
846 -> 860 ;
861 [label="gini = 0.0\nsamples = 1\nvalue = [0, 1]"] ;
843 -> 861 ;
862 [label="x[4] <= 33.5\ngini = 0.469\nsamples = 24\nvalue = [15, 9]"] ;
842 -> 862 ;
863 [label="x[1] <= 1.5\ngini = 0.245\nsamples = 7\nvalue = [6, 1]"] ;
862 -> 863 ;
864 [label="x[14] <= 308.5\ngini = 0.444\nsamples = 3\nvalue = [2, 1]"] ;
863 -> 864 ;
865 [label="gini = 0.0\nsamples = 2\nvalue = [2, 0]"] ;
864 -> 865 ;
866 [label="gini = 0.0\nsamples = 1\nvalue = [0, 1]"] ;
864 -> 866 ;
867 [label="gini = 0.0\nsamples = 4\nvalue = [4, 0]"] ;
863 -> 867 ;
868 [label="x[0] <= 220000.0\ngini = 0.498\nsamples = 17\nvalue = [9, 8]"] ;
862 -> 868 ;
869 [label="x[4] <= 45.0\ngini = 0.463\nsamples = 11\nvalue = [4, 7]"] ;
868 -> 869 ;
870 [label="x[2] <= 1.5\ngini = 0.346\nsamples = 9\nvalue = [2, 7]"] ;
869 -> 870 ;
871 [label="x[17] <= 320.5\ngini = 0.48\nsamples = 5\nvalue = [2, 3]"] ;
870 -> 871 ;
872 [label="gini = 0.0\nsamples = 1\nvalue = [1, 0]"] ;
871 -> 872 ;
873 [label="x[4] <= 37.5\ngini = 0.375\nsamples = 4\nvalue = [1, 3]"] ;
871 -> 873 ;
874 [label="x[18] <= 811.5\ngini = 0.5\nsamples = 2\nvalue = [1, 1]"] ;
873 -> 874 ;
875 [label="gini = 0.0\nsamples = 1\nvalue = [1, 0]"] ;
874 -> 875 ;
876 [label="gini = 0.0\nsamples = 1\nvalue = [0, 1]"] ;
874 -> 876 ;
877 [label="gini = 0.0\nsamples = 2\nvalue = [0, 2]"] ;
873 -> 877 ;
878 [label="gini = 0.0\nsamples = 4\nvalue = [0, 4]"] ;
870 -> 878 ;
879 [label="gini = 0.0\nsamples = 2\nvalue = [2, 0]"] ;
869 -> 879 ;
880 [label="x[21] <= 308.5\ngini = 0.278\nsamples = 6\nvalue = [5, 1]"] ;
868 -> 880 ;
881 [label="gini = 0.0\nsamples = 1\nvalue = [0, 1]"] ;
880 -> 881 ;
882 [label="gini = 0.0\nsamples = 5\nvalue = [5, 0]"] ;
880 -> 882 ;
883 [label="gini = 0.0\nsamples = 15\nvalue = [15, 0]"] ;
841 -> 883 ;
884 [label="x[17] <= 303.5\ngini = 0.15\nsamples = 49\nvalue = [45, 4]"] ;
832 -> 884 ;
885 [label="gini = 0.0\nsamples = 1\nvalue = [0, 1]"] ;
884 -> 885 ;
886 [label="x[0] <= 475000.0\ngini = 0.117\nsamples = 48\nvalue = [45, 3]"] ;
884 -> 886 ;
887 [label="x[13] <= 667.0\ngini = 0.081\nsamples = 47\nvalue = [45, 2]"] ;
886 -> 887 ;
888 [label="x[4] <= 44.0\ngini = 0.044\nsamples = 44\nvalue = [43, 1]"] ;
887 -> 888 ;
889 [label="gini = 0.0\nsamples = 35\nvalue = [35, 0]"] ;
888 -> 889 ;
890 [label="x[11] <= 406.0\ngini = 0.198\nsamples = 9\nvalue = [8, 1]"] ;
888 -> 890 ;
891 [label="gini = 0.0\nsamples = 6\nvalue = [6, 0]"] ;
890 -> 891 ;
892 [label="x[18] <= 423.0\ngini = 0.444\nsamples = 3\nvalue = [2, 1]"] ;
890 -> 892 ;
893 [label="gini = 0.0\nsamples = 1\nvalue = [0, 1]"] ;
892 -> 893 ;
894 [label="gini = 0.0\nsamples = 2\nvalue = [2, 0]"] ;
892 -> 894 ;
895 [label="x[15] <= 290.0\ngini = 0.444\nsamples = 3\nvalue = [2, 1]"] ;
887 -> 895 ;
896 [label="gini = 0.0\nsamples = 2\nvalue = [2, 0]"] ;
895 -> 896 ;
897 [label="gini = 0.0\nsamples = 1\nvalue = [0, 1]"] ;
895 -> 897 ;
898 [label="gini = 0.0\nsamples = 1\nvalue = [0, 1]"] ;
886 -> 898 ;
899 [label="gini = 0.0\nsamples = 1\nvalue = [0, 1]"] ;
831 -> 899 ;
900 [label="x[4] <= 56.5\ngini = 0.5\nsamples = 10\nvalue = [5, 5]"] ;
830 -> 900 ;
901 [label="x[19] <= 466.5\ngini = 0.32\nsamples = 5\nvalue = [1, 4]"] ;
900 -> 901 ;
902 [label="gini = 0.0\nsamples = 4\nvalue = [0, 4]"] ;
901 -> 902 ;
903 [label="gini = 0.0\nsamples = 1\nvalue = [1, 0]"] ;
901 -> 903 ;
904 [label="x[21] <= 858.0\ngini = 0.32\nsamples = 5\nvalue = [4, 1]"] ;
900 -> 904 ;
905 [label="gini = 0.0\nsamples = 4\nvalue = [4, 0]"] ;
904 -> 905 ;
906 [label="gini = 0.0\nsamples = 1\nvalue = [0, 1]"] ;
904 -> 906 ;
907 [label="x[0] <= 155000.0\ngini = 0.5\nsamples = 26\nvalue = [13, 13]"] ;
825 -> 907 ;
908 [label="x[9] <= -0.5\ngini = 0.198\nsamples = 9\nvalue = [8, 1]"] ;
907 -> 908 ;
909 [label="gini = 0.0\nsamples = 8\nvalue = [8, 0]"] ;
908 -> 909 ;
910 [label="gini = 0.0\nsamples = 1\nvalue = [0, 1]"] ;
908 -> 910 ;
911 [label="x[16] <= 394.5\ngini = 0.415\nsamples = 17\nvalue = [5, 12]"] ;
907 -> 911 ;
912 [label="x[0] <= 165000.0\ngini = 0.444\nsamples = 6\nvalue = [4, 2]"] ;
911 -> 912 ;
913 [label="gini = 0.0\nsamples = 2\nvalue = [0, 2]"] ;
912 -> 913 ;
914 [label="gini = 0.0\nsamples = 4\nvalue = [4, 0]"] ;
912 -> 914 ;
915 [label="x[4] <= 26.5\ngini = 0.165\nsamples = 11\nvalue = [1, 10]"] ;
911 -> 915 ;
916 [label="gini = 0.0\nsamples = 1\nvalue = [1, 0]"] ;
915 -> 916 ;
917 [label="gini = 0.0\nsamples = 10\nvalue = [0, 10]"] ;
915 -> 917 ;
918 [label="x[15] <= 226.0\ngini = 0.48\nsamples = 15\nvalue = [6, 9]"] ;
824 -> 918 ;
919 [label="gini = 0.0\nsamples = 4\nvalue = [0, 4]"] ;
918 -> 919 ;
920 [label="x[19] <= 403.0\ngini = 0.496\nsamples = 11\nvalue = [6, 5]"] ;
918 -> 920 ;
921 [label="x[0] <= 130000.0\ngini = 0.469\nsamples = 8\nvalue = [3, 5]"] ;
920 -> 921 ;
922 [label="x[21] <= 821.5\ngini = 0.375\nsamples = 4\nvalue = [3, 1]"] ;
921 -> 922 ;
923 [label="x[11] <= 327.0\ngini = 0.5\nsamples = 2\nvalue = [1, 1]"] ;
922 -> 923 ;
924 [label="gini = 0.0\nsamples = 1\nvalue = [1, 0]"] ;
923 -> 924 ;
925 [label="gini = 0.0\nsamples = 1\nvalue = [0, 1]"] ;
923 -> 925 ;
926 [label="gini = 0.0\nsamples = 2\nvalue = [2, 0]"] ;
922 -> 926 ;
927 [label="gini = 0.0\nsamples = 4\nvalue = [0, 4]"] ;
921 -> 927 ;
928 [label="gini = 0.0\nsamples = 3\nvalue = [3, 0]"] ;
920 -> 928 ;
929 [label="x[19] <= 61804.5\ngini = 0.259\nsamples = 131\nvalue = [111, 20]"] ;
823 -> 929 ;
930 [label="x[4] <= 56.5\ngini = 0.24\nsamples = 129\nvalue = [111, 18]"] ;
929 -> 930 ;
931 [label="x[16] <= -2076.0\ngini = 0.23\nsamples = 128\nvalue = [111, 17]"] ;
930 -> 931 ;
932 [label="gini = 0.0\nsamples = 1\nvalue = [0, 1]"] ;
931 -> 932 ;
933 [label="x[11] <= 127.5\ngini = 0.22\nsamples = 127\nvalue = [111, 16]"] ;
931 -> 933 ;
934 [label="x[15] <= 657.5\ngini = 0.14\nsamples = 66\nvalue = [61, 5]"] ;
933 -> 934 ;
935 [label="x[15] <= 641.5\ngini = 0.239\nsamples = 36\nvalue = [31, 5]"] ;
934 -> 935 ;
936 [label="x[18] <= 757.5\ngini = 0.202\nsamples = 35\nvalue = [31, 4]"] ;
935 -> 936 ;
937 [label="x[0] <= 15000.0\ngini = 0.069\nsamples = 28\nvalue = [27, 1]"] ;
936 -> 937 ;
938 [label="gini = 0.0\nsamples = 1\nvalue = [0, 1]"] ;
937 -> 938 ;
939 [label="gini = 0.0\nsamples = 27\nvalue = [27, 0]"] ;
937 -> 939 ;
940 [label="x[22] <= 92.5\ngini = 0.49\nsamples = 7\nvalue = [4, 3]"] ;
936 -> 940 ;
941 [label="gini = 0.0\nsamples = 3\nvalue = [3, 0]"] ;
940 -> 941 ;
942 [label="x[4] <= 47.0\ngini = 0.375\nsamples = 4\nvalue = [1, 3]"] ;
940 -> 942 ;
943 [label="gini = 0.0\nsamples = 3\nvalue = [0, 3]"] ;
942 -> 943 ;
944 [label="gini = 0.0\nsamples = 1\nvalue = [1, 0]"] ;
942 -> 944 ;
945 [label="gini = 0.0\nsamples = 1\nvalue = [0, 1]"] ;
935 -> 945 ;
946 [label="gini = 0.0\nsamples = 30\nvalue = [30, 0]"] ;
934 -> 946 ;
947 [label="x[18] <= 1285.0\ngini = 0.296\nsamples = 61\nvalue = [50, 11]"] ;
933 -> 947 ;
948 [label="x[11] <= 165.5\ngini = 0.259\nsamples = 59\nvalue = [50, 9]"] ;
947 -> 948 ;
949 [label="gini = 0.0\nsamples = 1\nvalue = [0, 1]"] ;
948 -> 949 ;
950 [label="x[22] <= 393.0\ngini = 0.238\nsamples = 58\nvalue = [50, 8]"] ;
948 -> 950 ;
951 [label="x[4] <= 32.5\ngini = 0.334\nsamples = 33\nvalue = [26, 7]"] ;
950 -> 951 ;
952 [label="x[4] <= 24.5\ngini = 0.124\nsamples = 15\nvalue = [14, 1]"] ;
951 -> 952 ;
953 [label="x[18] <= 195.0\ngini = 0.375\nsamples = 4\nvalue = [3, 1]"] ;
952 -> 953 ;
954 [label="gini = 0.0\nsamples = 1\nvalue = [0, 1]"] ;
953 -> 954 ;
955 [label="gini = 0.0\nsamples = 3\nvalue = [3, 0]"] ;
953 -> 955 ;
956 [label="gini = 0.0\nsamples = 11\nvalue = [11, 0]"] ;
952 -> 956 ;
957 [label="x[4] <= 33.5\ngini = 0.444\nsamples = 18\nvalue = [12, 6]"] ;
951 -> 957 ;
958 [label="gini = 0.0\nsamples = 2\nvalue = [0, 2]"] ;
957 -> 958 ;
959 [label="x[2] <= 1.5\ngini = 0.375\nsamples = 16\nvalue = [12, 4]"] ;
957 -> 959 ;
960 [label="x[16] <= 465.0\ngini = 0.48\nsamples = 5\nvalue = [2, 3]"] ;
959 -> 960 ;
961 [label="gini = 0.0\nsamples = 2\nvalue = [0, 2]"] ;
960 -> 961 ;
962 [label="x[17] <= 395.0\ngini = 0.444\nsamples = 3\nvalue = [2, 1]"] ;
960 -> 962 ;
963 [label="gini = 0.0\nsamples = 1\nvalue = [0, 1]"] ;
962 -> 963 ;
964 [label="gini = 0.0\nsamples = 2\nvalue = [2, 0]"] ;
962 -> 964 ;
965 [label="x[4] <= 49.5\ngini = 0.165\nsamples = 11\nvalue = [10, 1]"] ;
959 -> 965 ;
966 [label="gini = 0.0\nsamples = 9\nvalue = [9, 0]"] ;
965 -> 966 ;
967 [label="x[14] <= 1095.0\ngini = 0.5\nsamples = 2\nvalue = [1, 1]"] ;
965 -> 967 ;
968 [label="gini = 0.0\nsamples = 1\nvalue = [1, 0]"] ;
967 -> 968 ;
969 [label="gini = 0.0\nsamples = 1\nvalue = [0, 1]"] ;
967 -> 969 ;
970 [label="x[12] <= 357.5\ngini = 0.077\nsamples = 25\nvalue = [24, 1]"] ;
950 -> 970 ;
971 [label="x[4] <= 27.5\ngini = 0.375\nsamples = 4\nvalue = [3, 1]"] ;
970 -> 971 ;
972 [label="gini = 0.0\nsamples = 1\nvalue = [0, 1]"] ;
971 -> 972 ;
973 [label="gini = 0.0\nsamples = 3\nvalue = [3, 0]"] ;
971 -> 973 ;
974 [label="gini = 0.0\nsamples = 21\nvalue = [21, 0]"] ;
970 -> 974 ;
975 [label="gini = 0.0\nsamples = 2\nvalue = [0, 2]"] ;
947 -> 975 ;
976 [label="gini = 0.0\nsamples = 1\nvalue = [0, 1]"] ;
930 -> 976 ;
977 [label="gini = 0.0\nsamples = 2\nvalue = [0, 2]"] ;
929 -> 977 ;
978 [label="x[3] <= 2.5\ngini = 0.32\nsamples = 5\nvalue = [1, 4]"] ;
822 -> 978 ;
979 [label="gini = 0.0\nsamples = 4\nvalue = [0, 4]"] ;
978 -> 979 ;
980 [label="gini = 0.0\nsamples = 1\nvalue = [1, 0]"] ;
978 -> 980 ;
981 [label="x[13] <= 158.0\ngini = 0.32\nsamples = 5\nvalue = [1, 4]"] ;
741 -> 981 ;
982 [label="gini = 0.0\nsamples = 1\nvalue = [1, 0]"] ;
981 -> 982 ;
983 [label="gini = 0.0\nsamples = 4\nvalue = [0, 4]"] ;
981 -> 983 ;
984 [label="gini = 0.0\nsamples = 3\nvalue = [0, 3]"] ;
740 -> 984 ;
985 [label="x[4] <= 61.0\ngini = 0.179\nsamples = 252\nvalue = [227, 25]"] ;
739 -> 985 ;
986 [label="x[22] <= 393.0\ngini = 0.173\nsamples = 251\nvalue = [227, 24]"] ;
985 -> 986 ;
987 [label="x[21] <= 2561.5\ngini = 0.262\nsamples = 84\nvalue = [71, 13]"] ;
986 -> 987 ;
988 [label="x[10] <= -0.5\ngini = 0.165\nsamples = 66\nvalue = [60, 6]"] ;
987 -> 988 ;
989 [label="x[19] <= 825.5\ngini = 0.078\nsamples = 49\nvalue = [47, 2]"] ;
988 -> 989 ;
990 [label="x[19] <= 778.5\ngini = 0.165\nsamples = 22\nvalue = [20, 2]"] ;
989 -> 990 ;
991 [label="x[21] <= 945.0\ngini = 0.091\nsamples = 21\nvalue = [20, 1]"] ;
990 -> 991 ;
992 [label="gini = 0.0\nsamples = 17\nvalue = [17, 0]"] ;
991 -> 992 ;
993 [label="x[11] <= 303.0\ngini = 0.375\nsamples = 4\nvalue = [3, 1]"] ;
991 -> 993 ;
994 [label="gini = 0.0\nsamples = 3\nvalue = [3, 0]"] ;
993 -> 994 ;
995 [label="gini = 0.0\nsamples = 1\nvalue = [0, 1]"] ;
993 -> 995 ;
996 [label="gini = 0.0\nsamples = 1\nvalue = [0, 1]"] ;
990 -> 996 ;
997 [label="gini = 0.0\nsamples = 27\nvalue = [27, 0]"] ;
989 -> 997 ;
998 [label="x[0] <= 190000.0\ngini = 0.36\nsamples = 17\nvalue = [13, 4]"] ;
988 -> 998 ;
999 [label="gini = 0.0\nsamples = 9\nvalue = [9, 0]"] ;
998 -> 999 ;
1000 [label="x[15] <= 2637.5\ngini = 0.5\nsamples = 8\nvalue = [4, 4]"] ;
998 -> 1000 ;
1001 [label="gini = 0.0\nsamples = 3\nvalue = [0, 3]"] ;
1000 -> 1001 ;
1002 [label="x[18] <= 100.0\ngini = 0.32\nsamples = 5\nvalue = [4, 1]"] ;
1000 -> 1002 ;
1003 [label="gini = 0.0\nsamples = 1\nvalue = [0, 1]"] ;
1002 -> 1003 ;
1004 [label="gini = 0.0\nsamples = 4\nvalue = [4, 0]"] ;
1002 -> 1004 ;
1005 [label="x[2] <= 1.5\ngini = 0.475\nsamples = 18\nvalue = [11, 7]"] ;
987 -> 1005 ;
1006 [label="x[13] <= -1200.0\ngini = 0.375\nsamples = 8\nvalue = [2, 6]"] ;
1005 -> 1006 ;
1007 [label="gini = 0.0\nsamples = 1\nvalue = [1, 0]"] ;
1006 -> 1007 ;
1008 [label="x[0] <= 100000.0\ngini = 0.245\nsamples = 7\nvalue = [1, 6]"] ;
1006 -> 1008 ;
1009 [label="gini = 0.0\nsamples = 1\nvalue = [1, 0]"] ;
1008 -> 1009 ;
1010 [label="gini = 0.0\nsamples = 6\nvalue = [0, 6]"] ;
1008 -> 1010 ;
1011 [label="x[22] <= 284.0\ngini = 0.18\nsamples = 10\nvalue = [9, 1]"] ;
1005 -> 1011 ;
1012 [label="gini = 0.0\nsamples = 8\nvalue = [8, 0]"] ;
1011 -> 1012 ;
1013 [label="x[16] <= 8472.0\ngini = 0.5\nsamples = 2\nvalue = [1, 1]"] ;
1011 -> 1013 ;
1014 [label="gini = 0.0\nsamples = 1\nvalue = [1, 0]"] ;
1013 -> 1014 ;
1015 [label="gini = 0.0\nsamples = 1\nvalue = [0, 1]"] ;
1013 -> 1015 ;
1016 [label="x[13] <= -6.5\ngini = 0.123\nsamples = 167\nvalue = [156, 11]"] ;
986 -> 1016 ;
1017 [label="x[16] <= 1934.5\ngini = 0.444\nsamples = 9\nvalue = [6, 3]"] ;
1016 -> 1017 ;
1018 [label="gini = 0.0\nsamples = 2\nvalue = [0, 2]"] ;
1017 -> 1018 ;
1019 [label="x[2] <= 1.5\ngini = 0.245\nsamples = 7\nvalue = [6, 1]"] ;
1017 -> 1019 ;
1020 [label="gini = 0.0\nsamples = 1\nvalue = [0, 1]"] ;
1019 -> 1020 ;
1021 [label="gini = 0.0\nsamples = 6\nvalue = [6, 0]"] ;
1019 -> 1021 ;
1022 [label="x[4] <= 58.5\ngini = 0.096\nsamples = 158\nvalue = [150, 8]"] ;
1016 -> 1022 ;
1023 [label="x[0] <= 215000.0\ngini = 0.086\nsamples = 156\nvalue = [149, 7]"] ;
1022 -> 1023 ;
1024 [label="x[16] <= 40675.5\ngini = 0.158\nsamples = 81\nvalue = [74, 7]"] ;
1023 -> 1024 ;
1025 [label="x[18] <= 1497.0\ngini = 0.124\nsamples = 75\nvalue = [70, 5]"] ;
1024 -> 1025 ;
1026 [label="x[11] <= -119.5\ngini = 0.104\nsamples = 73\nvalue = [69, 4]"] ;
1025 -> 1026 ;
1027 [label="x[13] <= 504.0\ngini = 0.5\nsamples = 2\nvalue = [1, 1]"] ;
1026 -> 1027 ;
1028 [label="gini = 0.0\nsamples = 1\nvalue = [0, 1]"] ;
1027 -> 1028 ;
1029 [label="gini = 0.0\nsamples = 1\nvalue = [1, 0]"] ;
1027 -> 1029 ;
1030 [label="x[20] <= 951.5\ngini = 0.081\nsamples = 71\nvalue = [68, 3]"] ;
1026 -> 1030 ;
1031 [label="x[3] <= 1.5\ngini = 0.32\nsamples = 10\nvalue = [8, 2]"] ;
1030 -> 1031 ;
1032 [label="x[21] <= 1532.5\ngini = 0.444\nsamples = 3\nvalue = [1, 2]"] ;
1031 -> 1032 ;
1033 [label="gini = 0.0\nsamples = 2\nvalue = [0, 2]"] ;
1032 -> 1033 ;
1034 [label="gini = 0.0\nsamples = 1\nvalue = [1, 0]"] ;
1032 -> 1034 ;
1035 [label="gini = 0.0\nsamples = 7\nvalue = [7, 0]"] ;
1031 -> 1035 ;
1036 [label="x[4] <= 23.5\ngini = 0.032\nsamples = 61\nvalue = [60, 1]"] ;
1030 -> 1036 ;
1037 [label="x[16] <= 21970.0\ngini = 0.5\nsamples = 2\nvalue = [1, 1]"] ;
1036 -> 1037 ;
1038 [label="gini = 0.0\nsamples = 1\nvalue = [1, 0]"] ;
1037 -> 1038 ;
1039 [label="gini = 0.0\nsamples = 1\nvalue = [0, 1]"] ;
1037 -> 1039 ;
1040 [label="gini = 0.0\nsamples = 59\nvalue = [59, 0]"] ;
1036 -> 1040 ;
1041 [label="x[1] <= 1.5\ngini = 0.5\nsamples = 2\nvalue = [1, 1]"] ;
1025 -> 1041 ;
1042 [label="gini = 0.0\nsamples = 1\nvalue = [1, 0]"] ;
1041 -> 1042 ;
1043 [label="gini = 0.0\nsamples = 1\nvalue = [0, 1]"] ;
1041 -> 1043 ;
1044 [label="x[16] <= 59047.5\ngini = 0.444\nsamples = 6\nvalue = [4, 2]"] ;
1024 -> 1044 ;
1045 [label="gini = 0.0\nsamples = 2\nvalue = [0, 2]"] ;
1044 -> 1045 ;
1046 [label="gini = 0.0\nsamples = 4\nvalue = [4, 0]"] ;
1044 -> 1046 ;
1047 [label="gini = 0.0\nsamples = 75\nvalue = [75, 0]"] ;
1023 -> 1047 ;
1048 [label="x[11] <= 195.0\ngini = 0.5\nsamples = 2\nvalue = [1, 1]"] ;
1022 -> 1048 ;
1049 [label="gini = 0.0\nsamples = 1\nvalue = [0, 1]"] ;
1048 -> 1049 ;
1050 [label="gini = 0.0\nsamples = 1\nvalue = [1, 0]"] ;
1048 -> 1050 ;
1051 [label="gini = 0.0\nsamples = 1\nvalue = [0, 1]"] ;
985 -> 1051 ;
1052 [label="x[0] <= 65000.0\ngini = 0.28\nsamples = 4040\nvalue = [3360, 680]"] ;
4 -> 1052 ;
1053 [label="x[7] <= 1.0\ngini = 0.339\nsamples = 1593\nvalue = [1248, 345]"] ;
1052 -> 1053 ;
1054 [label="x[17] <= 1106.5\ngini = 0.324\nsamples = 1399\nvalue = [1114, 285]"] ;
1053 -> 1054 ;
1055 [label="x[13] <= 4692.0\ngini = 0.402\nsamples = 262\nvalue = [189, 73]"] ;
1054 -> 1055 ;
1056 [label="x[20] <= 2940.0\ngini = 0.376\nsamples = 239\nvalue = [179, 60]"] ;
1055 -> 1056 ;
1057 [label="x[12] <= -545.0\ngini = 0.398\nsamples = 215\nvalue = [156, 59]"] ;
1056 -> 1057 ;
1058 [label="gini = 0.0\nsamples = 2\nvalue = [0, 2]"] ;
1057 -> 1058 ;
1059 [label="x[3] <= 1.5\ngini = 0.392\nsamples = 213\nvalue = [156, 57]"] ;
1057 -> 1059 ;
1060 [label="x[8] <= -0.5\ngini = 0.457\nsamples = 85\nvalue = [55, 30]"] ;
1059 -> 1060 ;
1061 [label="x[1] <= 1.5\ngini = 0.433\nsamples = 79\nvalue = [54, 25]"] ;
1060 -> 1061 ;
1062 [label="x[7] <= -0.5\ngini = 0.494\nsamples = 38\nvalue = [21, 17]"] ;
1061 -> 1062 ;
1063 [label="x[16] <= 4867.0\ngini = 0.495\nsamples = 29\nvalue = [13, 16]"] ;
1062 -> 1063 ;
1064 [label="x[20] <= 465.0\ngini = 0.473\nsamples = 26\nvalue = [10, 16]"] ;
1063 -> 1064 ;
1065 [label="x[0] <= 25000.0\ngini = 0.42\nsamples = 20\nvalue = [6, 14]"] ;
1064 -> 1065 ;
1066 [label="gini = 0.0\nsamples = 7\nvalue = [0, 7]"] ;
1065 -> 1066 ;
1067 [label="x[0] <= 45000.0\ngini = 0.497\nsamples = 13\nvalue = [6, 7]"] ;
1065 -> 1067 ;
1068 [label="x[4] <= 41.0\ngini = 0.32\nsamples = 5\nvalue = [4, 1]"] ;
1067 -> 1068 ;
1069 [label="gini = 0.0\nsamples = 1\nvalue = [0, 1]"] ;
1068 -> 1069 ;
1070 [label="gini = 0.0\nsamples = 4\nvalue = [4, 0]"] ;
1068 -> 1070 ;
1071 [label="x[2] <= 1.5\ngini = 0.375\nsamples = 8\nvalue = [2, 6]"] ;
1067 -> 1071 ;
1072 [label="x[4] <= 32.5\ngini = 0.444\nsamples = 3\nvalue = [2, 1]"] ;
1071 -> 1072 ;
1073 [label="gini = 0.0\nsamples = 1\nvalue = [0, 1]"] ;
1072 -> 1073 ;
1074 [label="gini = 0.0\nsamples = 2\nvalue = [2, 0]"] ;
1072 -> 1074 ;
1075 [label="gini = 0.0\nsamples = 5\nvalue = [0, 5]"] ;
1071 -> 1075 ;
1076 [label="x[14] <= 2020.0\ngini = 0.444\nsamples = 6\nvalue = [4, 2]"] ;
1064 -> 1076 ;
1077 [label="gini = 0.0\nsamples = 4\nvalue = [4, 0]"] ;
1076 -> 1077 ;
1078 [label="gini = 0.0\nsamples = 2\nvalue = [0, 2]"] ;
1076 -> 1078 ;
1079 [label="gini = 0.0\nsamples = 3\nvalue = [3, 0]"] ;
1063 -> 1079 ;
1080 [label="x[19] <= 19600.0\ngini = 0.198\nsamples = 9\nvalue = [8, 1]"] ;
1062 -> 1080 ;
1081 [label="gini = 0.0\nsamples = 8\nvalue = [8, 0]"] ;
1080 -> 1081 ;
1082 [label="gini = 0.0\nsamples = 1\nvalue = [0, 1]"] ;
1080 -> 1082 ;
1083 [label="x[7] <= -0.5\ngini = 0.314\nsamples = 41\nvalue = [33, 8]"] ;
1061 -> 1083 ;
1084 [label="x[13] <= 582.0\ngini = 0.202\nsamples = 35\nvalue = [31, 4]"] ;
1083 -> 1084 ;
1085 [label="x[11] <= 50522.0\ngini = 0.128\nsamples = 29\nvalue = [27, 2]"] ;
1084 -> 1085 ;
1086 [label="x[4] <= 31.5\ngini = 0.071\nsamples = 27\nvalue = [26, 1]"] ;
1085 -> 1086 ;
1087 [label="x[4] <= 29.5\ngini = 0.278\nsamples = 6\nvalue = [5, 1]"] ;
1086 -> 1087 ;
1088 [label="gini = 0.0\nsamples = 4\nvalue = [4, 0]"] ;
1087 -> 1088 ;
1089 [label="x[11] <= 2433.0\ngini = 0.5\nsamples = 2\nvalue = [1, 1]"] ;
1087 -> 1089 ;
1090 [label="gini = 0.0\nsamples = 1\nvalue = [0, 1]"] ;
1089 -> 1090 ;
1091 [label="gini = 0.0\nsamples = 1\nvalue = [1, 0]"] ;
1089 -> 1091 ;
1092 [label="gini = 0.0\nsamples = 21\nvalue = [21, 0]"] ;
1086 -> 1092 ;
1093 [label="x[5] <= -1.0\ngini = 0.5\nsamples = 2\nvalue = [1, 1]"] ;
1085 -> 1093 ;
1094 [label="gini = 0.0\nsamples = 1\nvalue = [1, 0]"] ;
1093 -> 1094 ;
1095 [label="gini = 0.0\nsamples = 1\nvalue = [0, 1]"] ;
1093 -> 1095 ;
1096 [label="x[13] <= 778.0\ngini = 0.444\nsamples = 6\nvalue = [4, 2]"] ;
1084 -> 1096 ;
1097 [label="gini = 0.0\nsamples = 2\nvalue = [0, 2]"] ;
1096 -> 1097 ;
1098 [label="gini = 0.0\nsamples = 4\nvalue = [4, 0]"] ;
1096 -> 1098 ;
1099 [label="x[11] <= 10519.0\ngini = 0.444\nsamples = 6\nvalue = [2, 4]"] ;
1083 -> 1099 ;
1100 [label="gini = 0.0\nsamples = 3\nvalue = [0, 3]"] ;
1099 -> 1100 ;
1101 [label="x[11] <= 23171.5\ngini = 0.444\nsamples = 3\nvalue = [2, 1]"] ;
1099 -> 1101 ;
1102 [label="gini = 0.0\nsamples = 2\nvalue = [2, 0]"] ;
1101 -> 1102 ;
1103 [label="gini = 0.0\nsamples = 1\nvalue = [0, 1]"] ;
1101 -> 1103 ;
1104 [label="x[21] <= 5625.0\ngini = 0.278\nsamples = 6\nvalue = [1, 5]"] ;
1060 -> 1104 ;
1105 [label="gini = 0.0\nsamples = 5\nvalue = [0, 5]"] ;
1104 -> 1105 ;
1106 [label="gini = 0.0\nsamples = 1\nvalue = [1, 0]"] ;
1104 -> 1106 ;
1107 [label="x[19] <= 7848.0\ngini = 0.333\nsamples = 128\nvalue = [101, 27]"] ;
1059 -> 1107 ;
1108 [label="x[14] <= -2065.0\ngini = 0.289\nsamples = 114\nvalue = [94, 20]"] ;
1107 -> 1108 ;
1109 [label="gini = 0.0\nsamples = 1\nvalue = [0, 1]"] ;
1108 -> 1109 ;
1110 [label="x[9] <= -0.5\ngini = 0.28\nsamples = 113\nvalue = [94, 19]"] ;
1108 -> 1110 ;
1111 [label="x[14] <= 1079.5\ngini = 0.325\nsamples = 88\nvalue = [70, 18]"] ;
1110 -> 1111 ;
1112 [label="x[0] <= 15000.0\ngini = 0.275\nsamples = 79\nvalue = [66, 13]"] ;
1111 -> 1112 ;
1113 [label="gini = 0.0\nsamples = 2\nvalue = [0, 2]"] ;
1112 -> 1113 ;
1114 [label="x[11] <= 42467.0\ngini = 0.245\nsamples = 77\nvalue = [66, 11]"] ;
1112 -> 1114 ;
1115 [label="x[4] <= 23.5\ngini = 0.219\nsamples = 72\nvalue = [63, 9]"] ;
1114 -> 1115 ;
1116 [label="gini = 0.0\nsamples = 14\nvalue = [14, 0]"] ;
1115 -> 1116 ;
1117 [label="x[0] <= 35000.0\ngini = 0.262\nsamples = 58\nvalue = [49, 9]"] ;
1115 -> 1117 ;
1118 [label="x[11] <= 18046.5\ngini = 0.35\nsamples = 31\nvalue = [24, 7]"] ;
1117 -> 1118 ;
1119 [label="x[12] <= 585.0\ngini = 0.293\nsamples = 28\nvalue = [23, 5]"] ;
1118 -> 1119 ;
1120 [label="x[6] <= -1.5\ngini = 0.375\nsamples = 20\nvalue = [15, 5]"] ;
1119 -> 1120 ;
1121 [label="gini = 0.0\nsamples = 1\nvalue = [0, 1]"] ;
1120 -> 1121 ;
1122 [label="x[11] <= 1342.0\ngini = 0.332\nsamples = 19\nvalue = [15, 4]"] ;
1120 -> 1122 ;
1123 [label="gini = 0.0\nsamples = 6\nvalue = [6, 0]"] ;
1122 -> 1123 ;
1124 [label="x[5] <= -0.5\ngini = 0.426\nsamples = 13\nvalue = [9, 4]"] ;
1122 -> 1124 ;
1125 [label="x[1] <= 1.5\ngini = 0.48\nsamples = 5\nvalue = [2, 3]"] ;
1124 -> 1125 ;
1126 [label="gini = 0.0\nsamples = 2\nvalue = [0, 2]"] ;
1125 -> 1126 ;
1127 [label="x[22] <= 2964.5\ngini = 0.444\nsamples = 3\nvalue = [2, 1]"] ;
1125 -> 1127 ;
1128 [label="gini = 0.0\nsamples = 2\nvalue = [2, 0]"] ;
1127 -> 1128 ;
1129 [label="gini = 0.0\nsamples = 1\nvalue = [0, 1]"] ;
1127 -> 1129 ;
1130 [label="x[11] <= 16564.5\ngini = 0.219\nsamples = 8\nvalue = [7, 1]"] ;
1124 -> 1130 ;
1131 [label="gini = 0.0\nsamples = 6\nvalue = [6, 0]"] ;
1130 -> 1131 ;
1132 [label="x[13] <= -0.5\ngini = 0.5\nsamples = 2\nvalue = [1, 1]"] ;
1130 -> 1132 ;
1133 [label="gini = 0.0\nsamples = 1\nvalue = [1, 0]"] ;
1132 -> 1133 ;
1134 [label="gini = 0.0\nsamples = 1\nvalue = [0, 1]"] ;
1132 -> 1134 ;
1135 [label="gini = 0.0\nsamples = 8\nvalue = [8, 0]"] ;
1119 -> 1135 ;
1136 [label="x[4] <= 30.5\ngini = 0.444\nsamples = 3\nvalue = [1, 2]"] ;
1118 -> 1136 ;
1137 [label="gini = 0.0\nsamples = 1\nvalue = [1, 0]"] ;
1136 -> 1137 ;
1138 [label="gini = 0.0\nsamples = 2\nvalue = [0, 2]"] ;
1136 -> 1138 ;
1139 [label="x[19] <= 616.0\ngini = 0.137\nsamples = 27\nvalue = [25, 2]"] ;
1117 -> 1139 ;
1140 [label="x[4] <= 24.5\ngini = 0.08\nsamples = 24\nvalue = [23, 1]"] ;
1139 -> 1140 ;
1141 [label="x[2] <= 1.5\ngini = 0.32\nsamples = 5\nvalue = [4, 1]"] ;
1140 -> 1141 ;
1142 [label="gini = 0.0\nsamples = 3\nvalue = [3, 0]"] ;
1141 -> 1142 ;
1143 [label="x[6] <= -0.5\ngini = 0.5\nsamples = 2\nvalue = [1, 1]"] ;
1141 -> 1143 ;
1144 [label="gini = 0.0\nsamples = 1\nvalue = [0, 1]"] ;
1143 -> 1144 ;
1145 [label="gini = 0.0\nsamples = 1\nvalue = [1, 0]"] ;
1143 -> 1145 ;
1146 [label="gini = 0.0\nsamples = 19\nvalue = [19, 0]"] ;
1140 -> 1146 ;
1147 [label="x[0] <= 55000.0\ngini = 0.444\nsamples = 3\nvalue = [2, 1]"] ;
1139 -> 1147 ;
1148 [label="gini = 0.0\nsamples = 2\nvalue = [2, 0]"] ;
1147 -> 1148 ;
1149 [label="gini = 0.0\nsamples = 1\nvalue = [0, 1]"] ;
1147 -> 1149 ;
1150 [label="x[11] <= 45556.0\ngini = 0.48\nsamples = 5\nvalue = [3, 2]"] ;
1114 -> 1150 ;
1151 [label="gini = 0.0\nsamples = 1\nvalue = [0, 1]"] ;
1150 -> 1151 ;
1152 [label="x[7] <= -1.0\ngini = 0.375\nsamples = 4\nvalue = [3, 1]"] ;
1150 -> 1152 ;
1153 [label="gini = 0.0\nsamples = 2\nvalue = [2, 0]"] ;
1152 -> 1153 ;
1154 [label="x[12] <= 41750.0\ngini = 0.5\nsamples = 2\nvalue = [1, 1]"] ;
1152 -> 1154 ;
1155 [label="gini = 0.0\nsamples = 1\nvalue = [0, 1]"] ;
1154 -> 1155 ;
1156 [label="gini = 0.0\nsamples = 1\nvalue = [1, 0]"] ;
1154 -> 1156 ;
1157 [label="x[14] <= 2318.0\ngini = 0.494\nsamples = 9\nvalue = [4, 5]"] ;
1111 -> 1157 ;
1158 [label="gini = 0.0\nsamples = 4\nvalue = [0, 4]"] ;
1157 -> 1158 ;
1159 [label="x[7] <= -1.5\ngini = 0.32\nsamples = 5\nvalue = [4, 1]"] ;
1157 -> 1159 ;
1160 [label="gini = 0.0\nsamples = 1\nvalue = [0, 1]"] ;
1159 -> 1160 ;
1161 [label="gini = 0.0\nsamples = 4\nvalue = [4, 0]"] ;
1159 -> 1161 ;
1162 [label="x[4] <= 45.5\ngini = 0.077\nsamples = 25\nvalue = [24, 1]"] ;
1110 -> 1162 ;
1163 [label="gini = 0.0\nsamples = 23\nvalue = [23, 0]"] ;
1162 -> 1163 ;
1164 [label="x[22] <= 501.0\ngini = 0.5\nsamples = 2\nvalue = [1, 1]"] ;
1162 -> 1164 ;
1165 [label="gini = 0.0\nsamples = 1\nvalue = [0, 1]"] ;
1164 -> 1165 ;
1166 [label="gini = 0.0\nsamples = 1\nvalue = [1, 0]"] ;
1164 -> 1166 ;
1167 [label="x[16] <= 19666.5\ngini = 0.5\nsamples = 14\nvalue = [7, 7]"] ;
1107 -> 1167 ;
1168 [label="x[19] <= 35677.5\ngini = 0.219\nsamples = 8\nvalue = [1, 7]"] ;
1167 -> 1168 ;
1169 [label="gini = 0.0\nsamples = 7\nvalue = [0, 7]"] ;
1168 -> 1169 ;
1170 [label="gini = 0.0\nsamples = 1\nvalue = [1, 0]"] ;
1168 -> 1170 ;
1171 [label="gini = 0.0\nsamples = 6\nvalue = [6, 0]"] ;
1167 -> 1171 ;
1172 [label="x[10] <= 1.0\ngini = 0.08\nsamples = 24\nvalue = [23, 1]"] ;
1056 -> 1172 ;
1173 [label="gini = 0.0\nsamples = 23\nvalue = [23, 0]"] ;
1172 -> 1173 ;
1174 [label="gini = 0.0\nsamples = 1\nvalue = [0, 1]"] ;
1172 -> 1174 ;
1175 [label="x[14] <= 8760.5\ngini = 0.491\nsamples = 23\nvalue = [10, 13]"] ;
1055 -> 1175 ;
1176 [label="x[17] <= 1098.0\ngini = 0.432\nsamples = 19\nvalue = [6, 13]"] ;
1175 -> 1176 ;
1177 [label="x[2] <= 1.5\ngini = 0.153\nsamples = 12\nvalue = [1, 11]"] ;
1176 -> 1177 ;
1178 [label="x[15] <= 2946.5\ngini = 0.5\nsamples = 2\nvalue = [1, 1]"] ;
1177 -> 1178 ;
1179 [label="gini = 0.0\nsamples = 1\nvalue = [0, 1]"] ;
1178 -> 1179 ;
1180 [label="gini = 0.0\nsamples = 1\nvalue = [1, 0]"] ;
1178 -> 1180 ;
1181 [label="gini = 0.0\nsamples = 10\nvalue = [0, 10]"] ;
1177 -> 1181 ;
1182 [label="x[14] <= 7385.5\ngini = 0.408\nsamples = 7\nvalue = [5, 2]"] ;
1176 -> 1182 ;
1183 [label="gini = 0.0\nsamples = 5\nvalue = [5, 0]"] ;
1182 -> 1183 ;
1184 [label="gini = 0.0\nsamples = 2\nvalue = [0, 2]"] ;
1182 -> 1184 ;
1185 [label="gini = 0.0\nsamples = 4\nvalue = [4, 0]"] ;
1175 -> 1185 ;
1186 [label="x[11] <= 1511.0\ngini = 0.303\nsamples = 1137\nvalue = [925, 212]"] ;
1054 -> 1186 ;
1187 [label="gini = 0.0\nsamples = 38\nvalue = [38, 0]"] ;
1186 -> 1187 ;
1188 [label="x[11] <= 17693.5\ngini = 0.311\nsamples = 1099\nvalue = [887, 212]"] ;
1186 -> 1188 ;
1189 [label="x[11] <= 17625.5\ngini = 0.356\nsamples = 493\nvalue = [379, 114]"] ;
1188 -> 1189 ;
1190 [label="x[13] <= 34366.0\ngini = 0.35\nsamples = 490\nvalue = [379, 111]"] ;
1189 -> 1190 ;
1191 [label="x[10] <= 1.0\ngini = 0.345\nsamples = 487\nvalue = [379, 108]"] ;
1190 -> 1191 ;
1192 [label="x[12] <= 1237.5\ngini = 0.325\nsamples = 446\nvalue = [355, 91]"] ;
1191 -> 1192 ;
1193 [label="x[2] <= 2.5\ngini = 0.444\nsamples = 6\nvalue = [2, 4]"] ;
1192 -> 1193 ;
1194 [label="gini = 0.0\nsamples = 3\nvalue = [0, 3]"] ;
1193 -> 1194 ;
1195 [label="x[2] <= 4.5\ngini = 0.444\nsamples = 3\nvalue = [2, 1]"] ;
1193 -> 1195 ;
1196 [label="gini = 0.0\nsamples = 2\nvalue = [2, 0]"] ;
1195 -> 1196 ;
1197 [label="gini = 0.0\nsamples = 1\nvalue = [0, 1]"] ;
1195 -> 1197 ;
1198 [label="x[1] <= 1.5\ngini = 0.317\nsamples = 440\nvalue = [353, 87]"] ;
1192 -> 1198 ;
1199 [label="x[12] <= 15313.0\ngini = 0.366\nsamples = 236\nvalue = [179, 57]"] ;
1198 -> 1199 ;
1200 [label="x[22] <= 225.5\ngini = 0.4\nsamples = 170\nvalue = [123, 47]"] ;
1199 -> 1200 ;
1201 [label="x[12] <= 15066.0\ngini = 0.278\nsamples = 72\nvalue = [60, 12]"] ;
1200 -> 1201 ;
1202 [label="x[19] <= 357.0\ngini = 0.245\nsamples = 70\nvalue = [60, 10]"] ;
1201 -> 1202 ;
1203 [label="x[17] <= 2250.0\ngini = 0.435\nsamples = 25\nvalue = [17, 8]"] ;
1202 -> 1203 ;
1204 [label="x[21] <= 415.5\ngini = 0.308\nsamples = 21\nvalue = [17, 4]"] ;
1203 -> 1204 ;
1205 [label="x[4] <= 21.5\ngini = 0.124\nsamples = 15\nvalue = [14, 1]"] ;
1204 -> 1205 ;
1206 [label="x[17] <= 1652.5\ngini = 0.5\nsamples = 2\nvalue = [1, 1]"] ;
1205 -> 1206 ;
1207 [label="gini = 0.0\nsamples = 1\nvalue = [0, 1]"] ;
1206 -> 1207 ;
1208 [label="gini = 0.0\nsamples = 1\nvalue = [1, 0]"] ;
1206 -> 1208 ;
1209 [label="gini = 0.0\nsamples = 13\nvalue = [13, 0]"] ;
1205 -> 1209 ;
1210 [label="x[13] <= 8810.5\ngini = 0.5\nsamples = 6\nvalue = [3, 3]"] ;
1204 -> 1210 ;
1211 [label="x[11] <= 4373.0\ngini = 0.375\nsamples = 4\nvalue = [3, 1]"] ;
1210 -> 1211 ;
1212 [label="gini = 0.0\nsamples = 1\nvalue = [0, 1]"] ;
1211 -> 1212 ;
1213 [label="gini = 0.0\nsamples = 3\nvalue = [3, 0]"] ;
1211 -> 1213 ;
1214 [label="gini = 0.0\nsamples = 2\nvalue = [0, 2]"] ;
1210 -> 1214 ;
1215 [label="gini = 0.0\nsamples = 4\nvalue = [0, 4]"] ;
1203 -> 1215 ;
1216 [label="x[16] <= 17094.5\ngini = 0.085\nsamples = 45\nvalue = [43, 2]"] ;
1202 -> 1216 ;
1217 [label="x[0] <= 40000.0\ngini = 0.045\nsamples = 43\nvalue = [42, 1]"] ;
1216 -> 1217 ;
1218 [label="gini = 0.0\nsamples = 36\nvalue = [36, 0]"] ;
1217 -> 1218 ;
1219 [label="x[15] <= 5147.0\ngini = 0.245\nsamples = 7\nvalue = [6, 1]"] ;
1217 -> 1219 ;
1220 [label="x[14] <= 5912.5\ngini = 0.5\nsamples = 2\nvalue = [1, 1]"] ;
1219 -> 1220 ;
1221 [label="gini = 0.0\nsamples = 1\nvalue = [1, 0]"] ;
1220 -> 1221 ;
1222 [label="gini = 0.0\nsamples = 1\nvalue = [0, 1]"] ;
1220 -> 1222 ;
1223 [label="gini = 0.0\nsamples = 5\nvalue = [5, 0]"] ;
1219 -> 1223 ;
1224 [label="x[17] <= 1346.5\ngini = 0.5\nsamples = 2\nvalue = [1, 1]"] ;
1216 -> 1224 ;
1225 [label="gini = 0.0\nsamples = 1\nvalue = [1, 0]"] ;
1224 -> 1225 ;
1226 [label="gini = 0.0\nsamples = 1\nvalue = [0, 1]"] ;
1224 -> 1226 ;
1227 [label="gini = 0.0\nsamples = 2\nvalue = [0, 2]"] ;
1201 -> 1227 ;
1228 [label="x[22] <= 284.0\ngini = 0.459\nsamples = 98\nvalue = [63, 35]"] ;
1200 -> 1228 ;
1229 [label="gini = 0.0\nsamples = 3\nvalue = [0, 3]"] ;
1228 -> 1229 ;
1230 [label="x[22] <= 6905.0\ngini = 0.447\nsamples = 95\nvalue = [63, 32]"] ;
1228 -> 1230 ;
1231 [label="x[20] <= 496.0\ngini = 0.437\nsamples = 93\nvalue = [63, 30]"] ;
1230 -> 1231 ;
1232 [label="x[19] <= 1900.0\ngini = 0.32\nsamples = 35\nvalue = [28, 7]"] ;
1231 -> 1232 ;
1233 [label="x[4] <= 30.5\ngini = 0.264\nsamples = 32\nvalue = [27, 5]"] ;
1232 -> 1233 ;
1234 [label="x[0] <= 40000.0\ngini = 0.415\nsamples = 17\nvalue = [12, 5]"] ;
1233 -> 1234 ;
1235 [label="x[18] <= 1204.5\ngini = 0.496\nsamples = 11\nvalue = [6, 5]"] ;
1234 -> 1235 ;
1236 [label="x[22] <= 950.5\ngini = 0.278\nsamples = 6\nvalue = [5, 1]"] ;
1235 -> 1236 ;
1237 [label="gini = 0.0\nsamples = 4\nvalue = [4, 0]"] ;
1236 -> 1237 ;
1238 [label="x[21] <= 400.0\ngini = 0.5\nsamples = 2\nvalue = [1, 1]"] ;
1236 -> 1238 ;
1239 [label="gini = 0.0\nsamples = 1\nvalue = [0, 1]"] ;
1238 -> 1239 ;
1240 [label="gini = 0.0\nsamples = 1\nvalue = [1, 0]"] ;
1238 -> 1240 ;
1241 [label="x[17] <= 1222.5\ngini = 0.32\nsamples = 5\nvalue = [1, 4]"] ;
1235 -> 1241 ;
1242 [label="gini = 0.0\nsamples = 4\nvalue = [0, 4]"] ;
1241 -> 1242 ;
1243 [label="gini = 0.0\nsamples = 1\nvalue = [1, 0]"] ;
1241 -> 1243 ;
1244 [label="gini = 0.0\nsamples = 6\nvalue = [6, 0]"] ;
1234 -> 1244 ;
1245 [label="gini = 0.0\nsamples = 15\nvalue = [15, 0]"] ;
1233 -> 1245 ;
1246 [label="x[12] <= 9458.0\ngini = 0.444\nsamples = 3\nvalue = [1, 2]"] ;
1232 -> 1246 ;
1247 [label="gini = 0.0\nsamples = 2\nvalue = [0, 2]"] ;
1246 -> 1247 ;
1248 [label="gini = 0.0\nsamples = 1\nvalue = [1, 0]"] ;
1246 -> 1248 ;
1249 [label="x[13] <= 8236.5\ngini = 0.479\nsamples = 58\nvalue = [35, 23]"] ;
1231 -> 1249 ;
1250 [label="x[11] <= 4779.5\ngini = 0.365\nsamples = 25\nvalue = [19, 6]"] ;
1249 -> 1250 ;
1251 [label="x[18] <= 1311.0\ngini = 0.49\nsamples = 7\nvalue = [3, 4]"] ;
1250 -> 1251 ;
1252 [label="gini = 0.0\nsamples = 4\nvalue = [0, 4]"] ;
1251 -> 1252 ;
1253 [label="gini = 0.0\nsamples = 3\nvalue = [3, 0]"] ;
1251 -> 1253 ;
1254 [label="x[3] <= 2.5\ngini = 0.198\nsamples = 18\nvalue = [16, 2]"] ;
1250 -> 1254 ;
1255 [label="x[15] <= 3844.5\ngini = 0.111\nsamples = 17\nvalue = [16, 1]"] ;
1254 -> 1255 ;
1256 [label="gini = 0.0\nsamples = 1\nvalue = [0, 1]"] ;
1255 -> 1256 ;
1257 [label="gini = 0.0\nsamples = 16\nvalue = [16, 0]"] ;
1255 -> 1257 ;
1258 [label="gini = 0.0\nsamples = 1\nvalue = [0, 1]"] ;
1254 -> 1258 ;
1259 [label="x[12] <= 14496.5\ngini = 0.5\nsamples = 33\nvalue = [16, 17]"] ;
1249 -> 1259 ;
1260 [label="x[22] <= 606.5\ngini = 0.485\nsamples = 29\nvalue = [12, 17]"] ;
1259 -> 1260 ;
1261 [label="x[21] <= 1267.0\ngini = 0.463\nsamples = 11\nvalue = [7, 4]"] ;
1260 -> 1261 ;
1262 [label="x[18] <= 1178.5\ngini = 0.346\nsamples = 9\nvalue = [7, 2]"] ;
1261 -> 1262 ;
1263 [label="gini = 0.0\nsamples = 1\nvalue = [0, 1]"] ;
1262 -> 1263 ;
